[{"layersList":[{"neurons":[{"weights":[-0.13926794944621007,2.0856711580126017,-0.09079469212798595,-0.5531676815982498,2.4848208643100627,-0.6122396657759349]},{"weights":[-0.7348586144758155,-0.02769322983090415,1.600868771244251,0.30312331971695566,-0.8115624431656203,-1.3593747952327124]},{"weights":[-0.11020016653594937,-0.023401756131187387,-3.260312726950208,0.6958547523740845,-0.6849031763874387,0.7582628557626446]},{"weights":[-1.045395221319405,-0.09480413917039282,1.1160421498902875,0.4445398124816977,-0.08913971040694309,1.5479677677342558]},{"weights":[-0.471830665949197,3.861590621827063,-0.157507078818666,0.32049264515526926,0.32457217765410623,-1.5033377420700047]},{"weights":[1.801921290159268,0.22487762323082533,0.8935586781914553,0.3781098505677507,-0.22387192870989714,-1.0048885829821046]},{"weights":[-1.2451600191805166,0.12424019665885569,-0.26229258076035367,-0.4100598050571423,-0.7785663675228742,1.3197968677789038]},{"weights":[-2.310241320893034,0.14007122007966494,-1.117067568912427,1.065966290002756,-0.8588331195207206,1.552484254850616]}]},{"neurons":[{"weights":[0.4251960840322512,0.4057779522184608,-1.8398854391855335,1.5044399054149553,0.2768965471799967,-0.5155390919624128,-0.6765894730360799,-1.1848364926616821,-1.3864149599013462]}]}]},{"layersList":[{"neurons":[{"weights":[-0.1341764675378945,2.350528060457774,-0.09079469212798595,-0.49622213271228904,2.5251703611832648,-0.7076394859631946]},{"weights":[-1.1733712693500844,-0.03668196795827018,1.552988212788877,0.20323154025505968,-0.8512147512797468,-1.5244064733057912]},{"weights":[-0.11020016653594937,0.041956061322624146,-3.387098144113781,0.6144354299887401,-0.7661164797908414,0.8115279130172989]},{"weights":[-0.70056531087457,-0.11273745297008732,1.048286483333298,0.5142313001613397,-0.09557682090378072,1.4695801118072942]},{"weights":[-0.5357257531674176,3.815956936688179,-0.15182445632650182,0.3016533697952036,0.10662039241651572,-1.4857465657622348]},{"weights":[1.4121180588293294,0.12630326920697282,0.687056966016302,0.5455793820621826,-0.4904899115045908,-1.0156929240919221]},{"weights":[-1.2083549474195627,0.045057555726335644,-0.33933692899847484,-0.47646378633540465,-0.7785663675228742,1.3197968677789038]},{"weights":[-2.2555713138613185,0.08858937007350676,-1.2697758880795058,1.002145982873467,-0.9406684179718962,1.5941653748423736]}]},{"neurons":[{"weights":[0.5101058781329156,0.37913759857778634,-1.7272352118137775,1.3865814893879203,0.4922509466657954,-0.5367540709384564,-0.5167585784895692,-1.1435063362574696,-1.3792289376015514]}]}]},{"layersList":[{"neurons":[{"weights":[-0.12073137145239964,2.20215134810822,-0.11931942912800347,-0.49433688658618735,2.4848208643100627,-0.6143871275184889]},{"weights":[-0.7714037222246152,-0.02769322983090415,1.552988212788877,0.37970057656303585,-0.8115624431656203,-1.3593747952327124]},{"weights":[-0.08866194352471603,0.0016278483964081657,-3.3875034054746407,0.641205982852632,-0.7661164797908414,0.8115279130172989]},{"weights":[-1.0319766499124916,-0.3540547621364907,1.048286483333298,0.4588287372816248,-0.24731365166682323,1.5479677677342558]},{"weights":[-0.471830665949197,3.7398540728127427,-0.157507078818666,0.32049264515526926,-0.07943366384940195,-1.4857465657622348]},{"weights":[1.801921290159268,0.22487762323082533,0.6037704063620356,0.3981363800653532,-0.35509136119327994,-1.0048885829821046]},{"weights":[-1.2451600191805166,0.045057555726335644,-0.17265978093072043,-0.4100598050571423,-0.7197422173372422,1.3197968677789038]},{"weights":[-2.4085428438079277,0.14007122007966494,-1.2122735308553965,0.9890336934962265,-0.8588331195207206,1.5620737220242877]}]},{"neurons":[{"weights":[0.567549682865995,0.37913759857778634,-1.731859955405286,1.5044399054149553,0.6047345898335444,-0.5155390919624128,-0.6541776384428893,-1.1556886540931814,-1.3864149599013462]}]}]},{"layersList":[{"neurons":[{"weights":[-0.17469633960605124,2.244828727650885,-0.1147346335744715,-0.49433688658618735,2.567262300296062,-0.700889529707385]},{"weights":[-0.7608955630720864,0.04237813880004284,1.552988212788877,0.4734399253770243,-0.9884117009438442,-1.2482202330773666]},{"weights":[-0.16008703200300706,0.003407844567879653,-3.387098144113781,0.6144354299887401,-0.7445900734995853,0.9409620065484663]},{"weights":[-0.5975302856074929,-0.10351310969798556,0.9699290375064112,0.4445398124816977,-0.05712594676501451,1.548373394777816]},{"weights":[-0.5169152550982612,3.861590621827063,-0.09030009635235367,0.15049030675209474,0.10662039241651572,-1.4857465657622348]},{"weights":[1.4324373811556714,0.031170339419120667,0.7633906796511775,0.4492833252436719,-0.15183326427031324,-0.9484862377961051]},{"weights":[-1.213916365430968,0.045057555726335644,-0.14263485992828903,-0.4666358163366199,-0.7774550948602148,1.3197968677789038]},{"weights":[-2.291837852002104,0.1500342274067171,-1.2796193681810326,1.002145982873467,-0.9406684179718962,1.5941653748423736]}]},{"neurons":[{"weights":[0.2949715921929169,0.4659369984872077,-1.8398854391855335,1.4398899732388877,0.5476743332679965,-0.5446643823353755,-0.5167585784895692,-1.1556886540931814,-1.3864149599013462]}]}]},{"layersList":[{"neurons":[{"weights":[-0.17469633960605124,2.2990139348246372,-0.11931942912800347,-0.49433688658618735,2.5566370743030733,-0.6553020070016478]},{"weights":[-0.7714037222246152,0.04237813880004284,1.6281688215054302,0.3835963630194744,-0.9884117009438442,-1.2642028199619344]},{"weights":[-0.11020016653594937,0.003407844567879653,-3.167617907210349,0.6899642619818,-0.7661164797908414,0.5976515239210409]},{"weights":[-0.5975302856074929,-0.11273745297008732,0.9452614959779895,0.5142313001613397,-0.17702122120459668,1.5479677677342558]},{"weights":[-0.536302853196012,3.861590621827063,-0.14154322439213196,0.12238560325179179,-0.005416991569713148,-1.7536219421837065]},{"weights":[1.4324373811556714,0.22487762323082533,0.8419714545135681,0.5455793820621826,-0.15183326427031324,-1.0048885829821046]},{"weights":[-1.1303905782056753,0.07994173348204126,-0.33933692899847484,-0.4322876968833546,-0.7197422173372422,1.3003716435582289]},{"weights":[-2.3790229362269226,0.1500342274067171,-1.2000500161955638,1.002145982873467,-0.819948317612396,1.6557133887095552]}]},{"neurons":[{"weights":[0.3593837219814287,0.5255523572293193,-1.8485656151423835,1.2652851525123994,0.4922509466657954,-0.5155390919624128,-0.5167585784895692,-1.1556886540931814,-1.3792289376015514]}]}]},{"layersList":[{"neurons":[{"weights":[-0.1341764675378945,2.377943104508409,-0.11931942912800347,-0.6738015974307193,2.5260907759685027,-0.6143871275184889]},{"weights":[-1.162265988388109,-0.01034471774793658,1.6373863095809869,0.2886425870543966,-1.1469499449395404,-1.5244064733057912]},{"weights":[-0.11020016653594937,0.003407844567879653,-3.475583800399364,0.6899642619818,-0.9568630462018988,0.8115279130172989]},{"weights":[-0.6130963169765345,-0.08342066399703399,0.9699290375064112,0.47278354365545017,-0.1764375342809027,1.5479677677342558]},{"weights":[-0.5438427721756288,3.843181064477309,-0.0697709906511712,0.32049264515526926,-0.07943366384940195,-1.7536219421837065]},{"weights":[1.4121180588293294,0.1297783063195073,0.687056966016302,0.5606927792855606,-0.27615567361810495,-0.960731636382195]},{"weights":[-1.2451600191805166,0.045057555726335644,-0.33933692899847484,-0.49338809307135845,-0.6689379180299229,1.3197968677789038]},{"weights":[-2.44960715012647,0.14007122007966494,-1.169769470558386,1.002145982873467,-0.8479968128876569,1.512179140475486]}]},{"neurons":[{"weights":[0.4251960840322512,0.37913759857778634,-1.8485656151423835,1.2888113991877088,0.4922509466657954,-0.43199208207498363,-0.5167585784895692,-1.0643099708290846,-1.3864149599013462]}]}]},{"layersList":[{"neurons":[{"weights":[-0.17469633960605124,2.2990139348246372,0.091587672283473,-0.3513102407827765,2.439677171095179,-0.6422448994044382]},{"weights":[-0.6694782318217736,0.04237813880004284,1.552988212788877,0.17046611146148724,-0.8808026043042445,-1.4717142284932987]},{"weights":[-0.07609598122788307,0.003407844567879653,-3.331923173839089,0.6899642619818,-0.4347672706055836,0.8738337959953817]},{"weights":[-0.653994703575758,-0.19643414897538286,0.9452614959779895,0.5017831476310523,-0.08913971040694309,1.292897559453232]},{"weights":[-0.41880467415671907,3.861590621827063,-0.1114378595195209,0.15049030675209474,0.32457217765410623,-1.3810651861139185]},{"weights":[1.437175088430287,0.14480304748959152,0.8935586781914553,0.3750094785889755,-0.15183326427031324,-1.0191875529527856]},{"weights":[-1.2735306828621202,0.045057555726335644,-0.31183555647346156,-0.4322876968833546,-0.739067699602035,1.5557727023643333]},{"weights":[-2.211806634264733,0.0756106907860435,-1.2000500161955638,1.0817880252442302,-0.8525419391548884,1.552484254850616]}]},{"neurons":[{"weights":[0.28606363640470195,0.4410791535691853,-1.763994373254297,1.343421561098151,0.4623643872924136,-0.4131244024777543,-0.45835247234129084,-1.1653066329441362,-1.3864149599013462]}]}]},{"layersList":[{"neurons":[{"weights":[-0.1455825826022769,2.2990139348246372,-0.09079469212798595,-0.5531676815982498,2.5673688425327983,-0.6194532952050368]},{"weights":[-0.7608955630720864,-0.02769322983090415,1.5697333482281806,0.20323154025505968,-1.1539436060032846,-1.3945916978303308]},{"weights":[-0.08355865135286339,-0.023401756131187387,-3.311663789184174,1.1272459492888922,-0.6849031763874387,0.6177892815401438]},{"weights":[-0.9828765641419184,-0.27231045777028673,1.0597871180943974,0.522560951222426,-0.1764375342809027,1.5479677677342558]},{"weights":[-0.4210494987997376,3.9666000953076166,-0.17186472222226695,0.15049030675209474,-0.10373824980061314,-1.4857465657622348]},{"weights":[1.3205215092243687,0.1297783063195073,0.7633906796511775,0.4492833252436719,-0.22387192870989714,-0.9340291811332978]},{"weights":[-1.1408332419647562,0.045057555726335644,-0.26229258076035367,-0.4100598050571423,-0.7785663675228742,1.5557727023643333]},{"weights":[-2.258839733147907,0.1500342274067171,-1.2000500161955638,0.9890336934962265,-0.7128814750087142,1.5699624320604568]}]},{"neurons":[{"weights":[0.4251960840322512,0.2674314186500286,-1.8355517728085051,1.3609111295704661,0.3742185651718809,-0.4131244024777543,-0.45835247234129084,-1.1556886540931814,-1.5222031749097824]}]}]},{"layersList":[{"neurons":[{"weights":[-0.03530855825668437,2.20215134810822,-0.11931942912800347,-0.49433688658618735,2.4650820489978775,-0.6143871275184889]},{"weights":[-0.7714037222246152,-0.02769322983090415,1.552988212788877,0.37970057656303585,-0.8808026043042445,-1.5211757636201833]},{"weights":[-0.10442135191893728,0.003407844567879653,-3.302413942208979,0.9371097556960307,-0.7068687124363302,0.6606801417424949]},{"weights":[-1.045395221319405,-0.3540547621364907,0.9628834171389125,0.47278354365545017,-0.24731365166682323,1.5479677677342558]},{"weights":[-0.37332587111408033,3.6714289522015435,-0.09068210161024803,0.32049264515526926,0.32457217765410623,-1.4722840266824864]},{"weights":[1.3660782210874716,0.031170339419120667,0.6808210860097066,0.4492833252436719,-0.15183326427031324,-0.9919677024800997]},{"weights":[-1.1654205440290064,0.045057555726335644,-0.17265978093072043,-0.4100598050571423,-0.7197422173372422,1.3197968677789038]},{"weights":[-2.38615373635645,0.14007122007966494,-1.2122735308553965,0.9251942901187794,-0.8906617707151694,1.5941653748423736]}]},{"neurons":[{"weights":[0.5101058781329156,0.4410791535691853,-1.7749745318306016,1.2652851525123994,0.516967198817022,-0.5155390919624128,-0.6765894730360799,-1.1349765798788047,-1.3864149599013462]}]}]},{"layersList":[{"neurons":[{"weights":[-0.1341764675378945,2.2990139348246372,-0.09079469212798595,-0.6515345967586819,2.5743926955239838,-0.6534949543208682]},{"weights":[-0.7714037222246152,-0.02769322983090415,1.552988212788877,0.37970057656303585,-1.1469499449395404,-1.4310132281033454]},{"weights":[-0.11020016653594937,0.028475819155507273,-3.475583800399364,0.5715140620487369,-0.7661164797908414,0.8115279130172989]},{"weights":[-0.6130963169765345,-0.0010174922092155009,0.9971285499817437,0.41191798589829753,-0.1764375342809027,1.57714353296114]},{"weights":[-0.5189571351540496,3.843181064477309,-0.157507078818666,0.06728524131932673,0.10662039241651572,-1.7536219421837065]},{"weights":[1.4121180588293294,0.1297783063195073,0.687056966016302,0.5606927792855606,-0.22387192870989714,-0.960731636382195]},{"weights":[-1.213916365430968,0.045057555726335644,-0.294110511746568,-0.4808908173983823,-0.7197422173372422,1.3197968677789038]},{"weights":[-2.44960715012647,0.14007122007966494,-1.2931317699396085,1.002145982873467,-0.8588331195207206,1.6557133887095552]}]},{"neurons":[{"weights":[0.4017016277709509,0.43916093458674577,-1.8485656151423835,1.2888113991877088,0.4922509466657954,-0.43199208207498363,-0.5629226487483778,-1.1556886540931814,-1.3792289376015514]}]}]},{"layersList":[{"neurons":[{"weights":[0.0742916479439922,2.447800860483202,0.091587672283473,-0.5660885620276325,2.428682042316522,-0.5932363571556349]},{"weights":[-0.6694782318217736,-0.07401430276692894,1.5557543024128095,0.14847370291532314,-0.8808026043042445,-1.2456438585643577]},{"weights":[-0.07609598122788307,0.058049798762972935,-3.331923173839089,0.6899642619818,-0.6849393540835853,0.6584865794569659]},{"weights":[-0.653994703575758,-0.19804800015068683,1.0313497212512053,0.46098191255725973,-0.08913971040694309,1.4864376195607727]},{"weights":[-0.4769633083104912,3.94848172419841,-0.17186472222226695,0.184238026863676,-0.005001105411771778,-1.6548564063912903]},{"weights":[1.3694351217319252,0.1297783063195073,0.912021314661656,0.3781098505677507,-0.24307048787445484,-1.0159927737440209]},{"weights":[-1.067950875087948,0.045057555726335644,-0.31183555647346156,-0.4322876968833546,-0.7785663675228742,1.3197968677789038]},{"weights":[-2.211806634264733,0.08858937007350676,-1.2697758880795058,1.0817880252442302,-0.9007025908175601,1.6315756475059449]}]},{"neurons":[{"weights":[0.567549682865995,0.5279712095198825,-1.7613614937137696,1.343421561098151,0.5354366209401712,-0.5155390919624128,-0.6919098183330932,-1.1098263008785128,-1.3874363354377353]}]}]},{"layersList":[{"neurons":[{"weights":[0.0742916479439922,2.1218168999137643,0.091587672283473,-0.49433688658618735,2.5299781107266672,-0.6553020070016478]},{"weights":[-0.7608955630720864,0.04237813880004284,1.552988212788877,0.37970057656303585,-1.0013727929503233,-1.5244064733057912]},{"weights":[-0.07609598122788307,0.003407844567879653,-3.331923173839089,0.6899642619818,-0.599731371594111,0.8381769345496349]},{"weights":[-0.653994703575758,-0.3316268182946108,0.8748360299706713,0.4445398124816977,-0.16151332436273813,1.5479677677342558]},{"weights":[-0.5191292025271907,3.8335468856610055,-0.17186472222226695,0.15049030675209474,-0.005416991569713148,-1.6548564063912903]},{"weights":[1.3205215092243687,0.2085710140036238,0.8935586781914553,0.3781098505677507,-0.22387192870989714,-1.0054279483642234]},{"weights":[-1.2735306828621202,0.04138690228365155,-0.14263485992828903,-0.48354145901293927,-0.7774550948602148,1.3197968677789038]},{"weights":[-2.44960715012647,0.14007122007966494,-1.2000500161955638,0.989689347144431,-0.7894339232213066,1.552484254850616]}]},{"neurons":[{"weights":[0.2494877502674047,0.5370010802153997,-1.8398854391855335,1.2652851525123994,0.5354366209401712,-0.4131244024777543,-0.568042324103473,-1.3863770235357062,-1.4728490538333414]}]}]},{"layersList":[{"neurons":[{"weights":[-0.019307546178762375,2.1218168999137643,0.12276060390755622,-0.5531676815982498,2.5299781107266672,-0.6143871275184889]},{"weights":[-0.7608955630720864,0.07384369381251084,1.571588266898293,0.37970057656303585,-1.0013727929503233,-1.5211757636201833]},{"weights":[-0.07672677564563056,0.003407844567879653,-3.302413942208979,1.1272459492888922,-0.599731371594111,0.8622175141370445]},{"weights":[-1.0319766499124916,-0.3316268182946108,0.8748360299706713,0.4445398124816977,-0.16151332436273813,1.4276182167095963]},{"weights":[-0.5191292025271907,4.08583849505656,0.008163829888110957,0.32049264515526926,0.08864394545475851,-1.4722840266824864]},{"weights":[1.3660782210874716,0.1297783063195073,0.7633906796511775,0.4573754971282847,-0.14071358779609067,-0.9919677024800997]},{"weights":[-1.1640633121515533,0.04138690228365155,-0.14263485992828903,-0.291621143333949,-0.7774550948602148,1.5557727023643333]},{"weights":[-2.4259756208060654,0.08858937007350676,-1.169769470558386,0.989689347144431,-0.8552306563060169,1.5941653748423736]}]},{"neurons":[{"weights":[0.5101058781329156,0.27605688675630347,-1.8398854391855335,1.2652851525123994,0.43017299511149,-0.399753367249296,-0.5135181989515724,-1.3863770235357062,-1.4728490538333414]}]}]},{"layersList":[{"neurons":[{"weights":[-0.17469633960605124,2.0856711580126017,-0.04218949684984699,-0.49433688658618735,2.4372289173526913,-0.5904495819890468]},{"weights":[-0.7728519377796049,0.11269338302954757,1.552988212788877,0.37970057656303585,-1.1556248043762187,-1.3593747952327124]},{"weights":[-0.11020016653594937,0.003407844567879653,-3.4355699287055743,0.7048085812454818,-0.5094468137706372,0.8788854818914592]},{"weights":[-0.5386689067988358,-0.3540547621364907,1.0524480120517086,0.5474617371634931,-0.13233330727832637,1.5479677677342558]},{"weights":[-0.471830665949197,3.799749774290569,-0.157507078818666,0.15049030675209474,0.32457217765410623,-1.4857465657622348]},{"weights":[1.437175088430287,0.22623764304596822,0.7347052066762434,0.4492833252436719,-0.27615567361810495,-1.0191875529527856]},{"weights":[-1.1408332419647562,0.045057555726335644,-0.17265978093072043,-0.4100598050571423,-0.7197422173372422,1.3197968677789038]},{"weights":[-2.423308474802981,0.1500342274067171,-1.2631336319150144,0.9439733915302887,-0.8875544516883435,1.552484254850616]}]},{"neurons":[{"weights":[0.43885105068752167,0.37913759857778634,-1.725474535392879,1.2652851525123994,0.5563569331287278,-0.4446091953141026,-0.45835247234129084,-1.1715003248707008,-1.3864149599013462]}]}]},{"layersList":[{"neurons":[{"weights":[-0.03530855825668437,2.3508751896561333,0.091587672283473,-0.3513102407827765,2.547021033042785,-0.6143871275184889]},{"weights":[-0.7608955630720864,0.0483874639273293,1.552988212788877,0.11293124465643267,-0.8808026043042445,-1.4717142284932987]},{"weights":[-0.11020016653594937,-0.02045222392590918,-3.364944119745906,0.7321041884650317,-0.599731371594111,0.8115279130172989]},{"weights":[-0.561672363237732,-0.19804800015068683,1.1160421498902875,0.3945030443810077,-0.08913971040694309,1.4276182167095963]},{"weights":[-0.41880467415671907,3.7835736652253873,-0.17186472222226695,0.15049030675209474,-0.005416991569713148,-1.6486909462721082]},{"weights":[1.3694351217319252,0.1297783063195073,0.8935586781914553,0.36897517195793345,-0.22387192870989714,-1.089228589126155]},{"weights":[-1.1408332419647562,0.05925312792862851,-0.14263485992828903,-0.38535158862151253,-0.7785663675228742,1.6578841068141492]},{"weights":[-2.4259756208060654,0.1500342274067171,-1.2122735308553965,1.0421620435861612,-0.8875544516883435,1.6315756475059449]}]},{"neurons":[{"weights":[0.40338407850867547,0.5279712095198825,-1.8612591782289838,1.353012124797654,0.5354366209401712,-0.5155390919624128,-0.6765894730360799,-1.2003976246458292,-1.329188576846432]}]}]},{"layersList":[{"neurons":[{"weights":[-0.1341764675378945,2.2990139348246372,-0.09079469212798595,-0.6515345967586819,2.5260907759685027,-0.6534949543208682]},{"weights":[-1.1733712693500844,0.04237813880004284,1.3880325834991716,0.2551842026466662,-1.1539436060032846,-1.5244064733057912]},{"weights":[-0.08355865135286339,-0.02045222392590918,-3.231840474481835,0.7321041884650317,-0.599731371594111,0.5976515239210409]},{"weights":[-0.7290378053780313,-0.11273745297008732,1.1403209024391436,0.3906843700270682,-0.02783655725558172,1.4695801118072942]},{"weights":[-0.5092418847259302,3.8452379198739206,-0.11232997713182255,0.1482021104484943,0.04933331880004302,-1.824599335611603]},{"weights":[1.4121180588293294,0.14480304748959152,0.687056966016302,0.5011714209390694,-0.22387192870989714,-1.0054279483642234]},{"weights":[-1.1807359854754713,-0.034431221194585054,-0.26229258076035367,-0.46869322442591205,-0.7197422173372422,1.3719817011012767]},{"weights":[-2.4259756208060654,0.016230114311391576,-1.2434956817143124,1.002145982873467,-0.8875544516883435,1.6557133887095552]}]},{"neurons":[{"weights":[0.2535434355928917,0.29550779105833713,-1.7516454616171502,1.5044399054149553,0.37932884496201424,-0.392030007904762,-0.5312667526756616,-1.1287105029372755,-1.3792289376015514]}]}]},{"layersList":[{"neurons":[{"weights":[-0.019307546178762375,2.20215134810822,0.12276060390755622,-0.5531676815982498,2.5299781107266672,-0.6775244498526858]},{"weights":[-0.6694782318217736,-0.02769322983090415,1.571588266898293,0.37970057656303585,-0.8808026043042445,-1.5211757636201833]},{"weights":[-0.027200649089794103,0.028475819155507273,-3.475583800399364,0.9801678972936575,-0.8054320687626785,0.6606801417424949]},{"weights":[-0.6130963169765345,-0.08342066399703399,0.9628834171389125,0.47278354365545017,-0.24731365166682323,1.4276182167095963]},{"weights":[-0.3761994767355258,4.08583849505656,-0.103968599976764,0.16284161550177975,0.08864394545475851,-1.516345731207348]},{"weights":[1.3660782210874716,0.1297783063195073,0.7024249512041945,0.4573754971282847,-0.15183326427031324,-0.960731636382195]},{"weights":[-1.213916365430968,0.05925312792862851,-0.14263485992828903,-0.4808908173983823,-0.7197422173372422,1.3197968677789038]},{"weights":[-2.44960715012647,0.14007122007966494,-1.169769470558386,0.9251942901187794,-0.8588331195207206,1.7378587223949333]}]},{"neurons":[{"weights":[0.4251960840322512,0.29856982230990126,-1.7304786291261494,1.4012626429541528,0.5563569331287278,-0.399753367249296,-0.5135181989515724,-1.1556886540931814,-1.3792289376015514]}]}]},{"layersList":[{"neurons":[{"weights":[-0.03530855825668437,2.3508751896561333,-0.11931942912800347,-0.6515345967586819,2.547021033042785,-0.6143871275184889]},{"weights":[-0.7714037222246152,-0.02769322983090415,1.552988212788877,0.16967225804728261,-0.8115624431656203,-1.5244064733057912]},{"weights":[-0.11020016653594937,0.028475819155507273,-3.475583800399364,0.7321041884650317,-0.7661164797908414,0.8115279130172989]},{"weights":[-0.6130963169765345,-0.3529491946865516,1.048286483333298,0.3945030443810077,-0.1764375342809027,1.4276182167095963]},{"weights":[-0.3761994767355258,4.181477334480137,-0.054578752971494726,0.15049030675209474,0.03423784925311747,-1.6227601798250069]},{"weights":[1.8122548484796672,0.1297783063195073,0.8935586781914553,0.5133998685944976,-0.06972938378532434,-1.0054279483642234]},{"weights":[-1.1408332419647562,0.05925312792862851,-0.14263485992828903,-0.4808908173983823,-0.7197422173372422,1.3197968677789038]},{"weights":[-2.4259756208060654,0.06302529687349093,-1.2122735308553965,1.002145982873467,-0.8875544516883435,1.6315756475059449]}]},{"neurons":[{"weights":[0.3083739023050871,0.4986839097909215,-1.725474535392879,1.5642627066026675,0.5563569331287278,-0.5155390919624128,-0.7285094071275426,-1.1556886540931814,-1.3792289376015514]}]}]},{"layersList":[{"neurons":[{"weights":[-0.019307546178762375,2.1579484120381274,0.12276060390755622,-0.5531676815982498,2.5299781107266672,-0.6143871275184889]},{"weights":[-0.6179661082567622,0.07384369381251084,1.571588266898293,0.17046611146148724,-0.9709744386551934,-1.5244064733057912]},{"weights":[-0.08866194352471603,0.005786411623374028,-3.302413942208979,0.6030549396836165,-0.8054320687626785,0.6606801417424949]},{"weights":[-1.0319766499124916,-0.09480413917039282,0.9628834171389125,0.5873084528371871,-0.24731365166682323,1.349975158855148]},{"weights":[-0.5788842298724307,4.08583849505656,-0.08450392772549098,0.12238560325179179,-0.07943366384940195,-1.6548564063912903]},{"weights":[1.2813448030352204,-1.0245258914028804E-4,0.7024249512041945,0.5455793820621826,-0.35509136119327994,-0.9919677024800997]},{"weights":[-1.1654205440290064,0.04814109123978959,-0.10360682478774658,-0.49338809307135845,-0.8002936509555418,1.5557727023643333]},{"weights":[-2.415661634475723,0.08858937007350676,-1.169769470558386,0.9439733915302887,-0.8092552102796101,1.512179140475486]}]},{"neurons":[{"weights":[0.567549682865995,0.37913759857778634,-1.8398854391855335,1.5168138441554593,0.6088401219024632,-0.399753367249296,-0.6541776384428893,-1.1556886540931814,-1.3864149599013462]}]}]},{"layersList":[{"neurons":[{"weights":[-0.14084889807870452,2.2990139348246372,-0.11931942912800347,-0.5048108777643204,2.5260907759685027,-0.6143871275184889]},{"weights":[-0.6179661082567622,0.04237813880004284,1.494028588335804,0.3835963630194744,-1.1556248043762187,-1.2642028199619344]},{"weights":[-0.08355865135286339,0.0016278483964081657,-3.167617907210349,0.6899642619818,-0.7661164797908414,0.5976515239210409]},{"weights":[-0.9248741329570673,-0.11273745297008732,0.9688786939639158,0.5142313001613397,-0.19400215075969304,1.4973642427424525]},{"weights":[-0.4863213436074465,3.7398540728127427,-0.08450392772549098,0.12238560325179179,-0.005416991569713148,-1.7536219421837065]},{"weights":[1.4324373811556714,0.22487762323082533,0.7716112182166669,0.5455793820621826,-0.35509136119327994,-1.0054279483642234]},{"weights":[-1.213916365430968,0.04814109123978959,-0.33933692899847484,-0.49338809307135845,-0.7270655185839148,1.3197968677789038]},{"weights":[-2.415661634475723,0.1500342274067171,-1.2245439303370775,1.002145982873467,-0.7894339232213066,1.5568529564724527]}]},{"neurons":[{"weights":[0.3593837219814287,0.5255523572293193,-1.8485656151423835,1.2652851525123994,0.4922509466657954,-0.5155390919624128,-0.6541776384428893,-1.1556886540931814,-1.3864149599013462]}]}]},{"layersList":[{"neurons":[{"weights":[-0.019307546178762375,2.175235710919856,0.12276060390755622,-0.5366987164043593,2.4741586051058064,-0.6143871275184889]},{"weights":[-1.1337057751617028,0.07384369381251084,1.552988212788877,0.17046611146148724,-0.8808026043042445,-1.2987057469127818]},{"weights":[-0.027200649089794103,0.0016278483964081657,-3.302413942208979,0.6306450055881099,-0.8054320687626785,0.6606801417424949]},{"weights":[-0.9441173084889856,-0.3945212888634262,0.9444863641496705,0.5873084528371871,-0.07725462840914317,1.4276182167095963]},{"weights":[-0.3761994767355258,4.08583849505656,-0.103968599976764,0.16284161550177975,0.08864394545475851,-1.4722840266824864]},{"weights":[1.3660782210874716,0.22487762323082533,0.7703452150857245,0.4573754971282847,-0.17786321614777661,-0.9919677024800997]},{"weights":[-1.2083037457425478,0.05925312792862851,-0.14263485992828903,-0.291621143333949,-0.6689379180299229,1.4927600692964964]},{"weights":[-2.4259756208060654,0.11496977974641218,-1.169769470558386,1.002145982873467,-0.8479968128876569,1.512179140475486]}]},{"neurons":[{"weights":[0.5101058781329156,0.29856982230990126,-1.7304786291261494,1.4398899732388877,0.516967198817022,-0.399753367249296,-0.5135181989515724,-1.254486211027596,-1.3864149599013462]}]}]},{"layersList":[{"neurons":[{"weights":[-0.05996561973093213,2.20215134810822,-0.09079469212798595,-0.6515345967586819,2.45004947443596,-0.6775244498526858]},{"weights":[-0.7714037222246152,-0.02769322983090415,1.6281688215054302,0.17046611146148724,-0.8115624431656203,-1.3593747952327124]},{"weights":[-0.11020016653594937,0.012449923831164916,-3.475583800399364,0.5715140620487369,-0.786588858916302,0.8115279130172989]},{"weights":[-0.6130963169765345,-0.3540547621364907,1.1343352200573749,0.45661314705373063,-0.1764375342809027,1.57714353296114]},{"weights":[-0.4863213436074465,3.7398540728127427,-0.15182445632650182,0.40315206230594003,0.10662039241651572,-1.7536219421837065]},{"weights":[1.7166399610591525,0.2094721100878509,0.687056966016302,0.4492833252436719,-0.4904899115045908,-0.960731636382195]},{"weights":[-1.0583430715166307,0.045057555726335644,-0.17265978093072043,-0.4808908173983823,-0.826061789334655,1.5557727023643333]},{"weights":[-2.4635432816655767,0.14007122007966494,-1.1726027400992218,0.885557808583841,-0.8588331195207206,1.7378587223949333]}]},{"neurons":[{"weights":[0.4251960840322512,0.4986839097909215,-1.725474535392879,1.2652851525123994,0.5563569331287278,-0.5155390919624128,-0.5379073572131274,-1.1556886540931814,-1.3951637291710233]}]}]},{"layersList":[{"neurons":[{"weights":[-0.019307546178762375,2.1579484120381274,-0.11931942912800347,-0.5531676815982498,2.4848208643100627,-0.6143871275184889]},{"weights":[-0.6694782318217736,0.07384369381251084,1.571588266898293,0.17046611146148724,-0.8808026043042445,-1.5211757636201833]},{"weights":[-0.027200649089794103,0.0016278483964081657,-3.302413942208979,0.9801678972936575,-0.8054320687626785,0.7196766023645421]},{"weights":[-1.0319766499124916,-0.3540547621364907,1.1419644834041502,0.5873084528371871,-0.09678225738291,1.2418212015757775]},{"weights":[-0.42619413921627963,3.7398540728127427,-0.13928514797742886,0.32049264515526926,0.08864394545475851,-1.5825581922105043]},{"weights":[1.3660782210874716,-0.0532644375737415,0.7024249512041945,0.4492833252436719,-0.07008298927038009,-0.9919677024800997]},{"weights":[-1.1654205440290064,0.045057555726335644,-0.14263485992828903,-0.291621143333949,-0.7197422173372422,1.5557727023643333]},{"weights":[-2.38615373635645,0.14007122007966494,-1.169769470558386,0.9251942901187794,-0.9007025908175601,1.5941653748423736]}]},{"neurons":[{"weights":[0.43885105068752167,0.29856982230990126,-1.7304786291261494,1.4012626429541528,0.516967198817022,-0.399753367249296,-0.5840175204081297,-1.1556886540931814,-1.3864149599013462]}]}]},{"layersList":[{"neurons":[{"weights":[-0.12438999896068885,2.148060726255749,-0.11931942912800347,-0.5743159129776508,2.583549676887397,-0.6268847628524686]},{"weights":[-1.1733712693500844,-0.09699769325588548,1.552988212788877,0.20323154025505968,-1.1634698728369806,-1.5244064733057912]},{"weights":[-0.08355865135286339,0.028475819155507273,-3.409914807715583,0.6899642619818,-0.7661164797908414,0.6665566673139338]},{"weights":[-0.6130963169765345,-0.10675964491901736,0.9971285499817437,0.47278354365545017,-0.18312175514087625,1.349975158855148]},{"weights":[-0.5150287403333712,3.843181064477309,-0.12441060701975101,0.13425227523364885,0.10662039241651572,-1.6548564063912903]},{"weights":[1.4121180588293294,0.20089565229604425,0.6899160063216151,0.5606927792855606,-0.35509136119327994,-0.9726137107835279]},{"weights":[-1.276042264975219,0.045057555726335644,-0.10360682478774658,-0.49338809307135845,-0.7785663675228742,1.3197968677789038]},{"weights":[-2.3556679594091574,0.08858937007350676,-1.2931317699396085,1.002145982873467,-0.8588331195207206,1.4176230315759115]}]},{"neurons":[{"weights":[0.4251960840322512,0.45330809748771933,-1.8485656151423835,1.2888113991877088,0.4922509466657954,-0.399753367249296,-0.5167585784895692,-1.1556886540931814,-1.3792289376015514]}]}]},{"layersList":[{"neurons":[{"weights":[-0.12438999896068885,2.1579484120381274,0.159896305437553,-0.49433688658618735,2.4021063570045658,-0.5949123316501436]},{"weights":[-0.7714037222246152,-0.02769322983090415,1.494028588335804,0.20323154025505968,-0.9709744386551934,-1.5278988730049519]},{"weights":[-0.08866194352471603,0.0016278483964081657,-3.167617907210349,1.1733513727517255,-0.9568630462018988,0.7582628557626446]},{"weights":[-0.6963221632504687,-0.3540547621364907,1.1336740465931003,0.5221905037813959,-0.16612612675641392,1.5479677677342558]},{"weights":[-0.5788842298724307,3.9316405916961874,0.008163829888110957,0.23764182129685424,-0.07943366384940195,-1.6548564063912903]},{"weights":[1.3809720896308055,0.01498969516017283,0.6899160063216151,0.5455793820621826,-0.35509136119327994,-0.9726137107835279]},{"weights":[-1.213916365430968,0.10250446840229896,-0.10360682478774658,-0.38610416119048124,-0.7197422173372422,1.3197968677789038]},{"weights":[-2.31323480780332,0.08858937007350676,-1.075368836912353,0.9439733915302887,-0.7894339232213066,1.512179140475486]}]},{"neurons":[{"weights":[0.4686372862877952,0.4410791535691853,-1.7516454616171502,1.520759886904961,0.4623643872924136,-0.399753367249296,-0.5175456661006355,-1.1959199978466524,-1.4728490538333414]}]}]},{"layersList":[{"neurons":[{"weights":[-0.03325863372820965,2.1579484120381274,-0.2030594322182173,-0.5531676815982498,2.5299781107266672,-0.6143871275184889]},{"weights":[-0.7714037222246152,0.04237813880004284,1.6655277258684165,0.17046611146148724,-0.8808026043042445,-1.4837635162141853]},{"weights":[-0.15232658248307446,0.07297411026323626,-3.302413942208979,1.1272459492888922,-0.7661164797908414,0.8738337959953817]},{"weights":[-1.0319766499124916,-0.3540547621364907,0.9628834171389125,0.5873084528371871,-0.22112357308842331,1.4276182167095963]},{"weights":[-0.3761994767355258,4.08583849505656,-0.103968599976764,0.16284161550177975,0.08864394545475851,-1.4722840266824864]},{"weights":[1.437175088430287,0.031170339419120667,0.7398065781237043,0.4492833252436719,-0.15183326427031324,-0.9919677024800997]},{"weights":[-1.1654205440290064,0.05925312792862851,-0.14263485992828903,-0.291621143333949,-0.7197422173372422,1.5557727023643333]},{"weights":[-2.44960715012647,0.12556293521620457,-1.169769470558386,0.9439733915302887,-0.7860231659941965,1.7378587223949333]}]},{"neurons":[{"weights":[0.459855716026573,0.27605688675630347,-1.7516454616171502,1.3273444145947113,0.516967198817022,-0.4929253824314946,-0.5135181989515724,-1.1695838868664667,-1.3864149599013462]}]}]},{"layersList":[{"neurons":[{"weights":[-0.03530855825668437,2.1579484120381274,-0.11931942912800347,-0.49433688658618735,2.4848208643100627,-0.6143871275184889]},{"weights":[-0.671608991913762,0.04237813880004284,1.571588266898293,0.14847370291532314,-0.8115624431656203,-1.3593747952327124]},{"weights":[-0.11020016653594937,0.058049798762972935,-3.3839291104220526,0.9801678972936575,-0.8249092629109237,0.5976515239210409]},{"weights":[-1.0080203809195791,-0.19804800015068683,1.0313497212512053,0.46098191255725973,-0.09678225738291,1.2418212015757775]},{"weights":[-0.4769633083104912,3.94848172419841,-0.103968599976764,0.32049264515526926,0.09761642279070973,-1.5033377420700047]},{"weights":[1.801921290159268,-0.0532644375737415,0.831405606998188,0.4492833252436719,-0.07008298927038009,-0.9919677024800997]},{"weights":[-1.213916365430968,-0.06555997189613218,-0.14263485992828903,-0.4666358163366199,-0.7197422173372422,1.3197968677789038]},{"weights":[-2.38615373635645,0.11212033557995563,-1.2529825666667327,0.9374005187015603,-0.9007025908175601,1.5321574010306478]}]},{"neurons":[{"weights":[0.5063063875400609,0.5279712095198825,-1.7516454616171502,1.5044399054149553,0.5230868493257447,-0.5155390919624128,-0.5840175204081297,-1.0353578299621362,-1.3864149599013462]}]}]},{"layersList":[{"neurons":[{"weights":[-0.03530855825668437,2.2990139348246372,-0.11931942912800347,-0.6515345967586819,2.4848208643100627,-0.6143871275184889]},{"weights":[-0.7714037222246152,-0.02769322983090415,1.6469218814205293,0.37970057656303585,-1.1469499449395404,-1.3593747952327124]},{"weights":[-0.08355865135286339,0.0016278483964081657,-3.3839291104220526,0.7161264438988505,-0.7661164797908414,0.8115279130172989]},{"weights":[-1.0319766499124916,-0.08370120166716727,1.1419644834041502,0.5138927598067592,-0.09678225738291,1.4456904246377666]},{"weights":[-0.42619413921627963,3.7398540728127427,-0.12441060701975101,0.06728524131932673,0.10662039241651572,-1.4786804134068852]},{"weights":[1.801921290159268,-0.0532644375737415,0.687056966016302,0.4492833252436719,-0.07008298927038009,-0.960731636382195]},{"weights":[-1.213916365430968,0.045057555726335644,-0.14263485992828903,-0.4322876968833546,-0.7785663675228742,1.3197968677789038]},{"weights":[-2.44960715012647,0.14007122007966494,-1.2585016013096586,1.002145982873467,-0.8588331195207206,1.5321574010306478]}]},{"neurons":[{"weights":[0.43885105068752167,0.45330809748771933,-1.80448385350953,1.5434896120915305,0.5230868493257447,-0.5155390919624128,-0.5840175204081297,-1.1556886540931814,-1.3792289376015514]}]}]},{"layersList":[{"neurons":[{"weights":[-0.12438999896068885,2.3508751896561333,0.159896305437553,-0.5531676815982498,2.547021033042785,-0.6143871275184889]},{"weights":[-0.6179661082567622,5.372988454134808E-4,1.552988212788877,0.20323154025505968,-0.9709744386551934,-1.5244064733057912]},{"weights":[-0.08866194352471603,-0.02045222392590918,-3.364944119745906,0.7321041884650317,-0.9568630462018988,0.6665566673139338]},{"weights":[-0.6963221632504687,-0.09480413917039282,0.9562802329435371,0.39164744809478935,-0.16612612675641392,1.349975158855148]},{"weights":[-0.5788842298724307,4.181477334480137,-0.08450392772549098,0.12238560325179179,0.09761642279070973,-1.6227601798250069]},{"weights":[1.4120430883075186,-0.0532644375737415,0.8935586781914553,0.5455793820621826,-0.06972938378532434,-0.9726137107835279]},{"weights":[-1.1408332419647562,0.07853902205864421,-0.10360682478774658,-0.49338809307135845,-0.8002936509555418,1.6525341555546793]},{"weights":[-2.415661634475723,0.08858937007350676,-1.1216609547290537,0.9439733915302887,-0.8875544516883435,1.512179140475486]}]},{"neurons":[{"weights":[0.3083739023050871,0.37913759857778634,-1.6841486287563352,1.2186428814229147,0.5563569331287278,-0.5155390919624128,-0.6541776384428893,-1.1556886540931814,-1.3864149599013462]}]}]},{"layersList":[{"neurons":[{"weights":[-0.019307546178762375,2.1579484120381274,-0.11931942912800347,-0.5366987164043593,2.5260907759685027,-0.6143871275184889]},{"weights":[-0.6694782318217736,0.07384369381251084,1.552988212788877,0.2886425870543966,-0.8808026043042445,-1.275458121061975]},{"weights":[-0.11020016653594937,0.0016278483964081657,-3.302413942208979,0.6306450055881099,-0.9568630462018988,0.6265182951576128]},{"weights":[-1.0319766499124916,-0.3540547621364907,0.9699290375064112,0.5873084528371871,-0.07725462840914317,1.512176060298301]},{"weights":[-0.3761994767355258,4.08583849505656,-0.103968599976764,0.16284161550177975,0.08864394545475851,-1.542281625329136]},{"weights":[1.3660782210874716,0.031170339419120667,0.7024249512041945,0.4573754971282847,-0.15183326427031324,-0.9919677024800997]},{"weights":[-1.1654205440290064,0.05925312792862851,-0.14263485992828903,-0.49338809307135845,-0.7197422173372422,1.4908774093212265]},{"weights":[-2.4259756208060654,0.11496977974641218,-1.169769470558386,0.9251942901187794,-0.9007025908175601,1.5941653748423736]}]},{"neurons":[{"weights":[0.5101058781329156,0.29856982230990126,-1.7304786291261494,1.3676314234294986,0.4514318649559258,-0.578926657136041,-0.6220182821653775,-1.1556886540931814,-1.3864149599013462]}]}]},{"layersList":[{"neurons":[{"weights":[-0.019307546178762375,2.1579484120381274,0.14734758687785565,-0.6080805466845122,2.5299781107266672,-0.6143871275184889]},{"weights":[-0.6694782318217736,0.07384369381251084,1.571588266898293,0.17046611146148724,-0.8808026043042445,-1.5211757636201833]},{"weights":[-0.027200649089794103,0.0016278483964081657,-3.387098144113781,0.6306450055881099,-0.9568630462018988,0.6606801417424949]},{"weights":[-1.0160488653608355,-0.3540547621364907,0.9699290375064112,0.5873084528371871,-0.24731365166682323,1.5479677677342558]},{"weights":[-0.3761994767355258,4.08583849505656,-0.103968599976764,0.2605442380033355,-0.07943366384940195,-1.4722840266824864]},{"weights":[1.4166948384473896,0.031170339419120667,0.7024249512041945,0.4573754971282847,-0.15183326427031324,-0.9919677024800997]},{"weights":[-1.1654205440290064,0.045057555726335644,-0.14263485992828903,-0.20726205308217585,-0.7197422173372422,1.5557727023643333]},{"weights":[-2.4259756208060654,0.06921970323202302,-1.169769470558386,1.002145982873467,-0.9007025908175601,1.5941653748423736]}]},{"neurons":[{"weights":[0.567549682865995,0.29856982230990126,-1.7304786291261494,1.4012626429541528,0.4514318649559258,-0.578926657136041,-0.6220182821653775,-1.1556886540931814,-1.3864149599013462]}]}]},{"layersList":[{"neurons":[{"weights":[-0.01676746474041466,2.2938136061683783,-0.11931942912800347,-0.5531676815982498,2.5299781107266672,-0.6143871275184889]},{"weights":[-0.6694782318217736,0.0483874639273293,1.571588266898293,0.17046611146148724,-1.1539436060032846,-1.3593747952327124]},{"weights":[-0.11020016653594937,0.0016278483964081657,-3.364944119745906,0.7321041884650317,-0.599731371594111,0.5980301634515801]},{"weights":[-1.0319766499124916,-0.3540547621364907,0.9562802329435371,0.34333018639411556,-0.21913940601150775,1.4276182167095963]},{"weights":[-0.3761994767355258,4.181477334480137,-0.054578752971494726,0.18384030363805104,0.09761642279070973,-1.4722840266824864]},{"weights":[1.8122548484796672,0.1297783063195073,0.8935586781914553,0.4573754971282847,-0.06972938378532434,-1.0054279483642234]},{"weights":[-1.1654205440290064,0.05925312792862851,-0.14263485992828903,-0.4322876968833546,-0.7197422173372422,1.3031708168845344]},{"weights":[-2.4259756208060654,0.18043332589092412,-1.2122735308553965,1.0421620435861612,-0.8875544516883435,1.6315756475059449]}]},{"neurons":[{"weights":[0.4933726530946621,0.5279712095198825,-1.6841486287563352,1.2186428814229147,0.5563569331287278,-0.399753367249296,-0.6765894730360799,-1.1556886540931814,-1.3864149599013462]}]}]},{"layersList":[{"neurons":[{"weights":[-0.019307546178762375,2.244828727650885,0.12276060390755622,-0.4146963856572588,2.5299781107266672,-0.6143871275184889]},{"weights":[-0.7850439386278208,-0.02769322983090415,1.5378388506634377,0.17046611146148724,-0.915624604219795,-1.5211757636201833]},{"weights":[-0.027200649089794103,0.003407844567879653,-3.231840474481835,0.9791223877166102,-0.599731371594111,0.6177892815401438]},{"weights":[-0.9828765641419184,-0.27231045777028673,0.9628834171389125,0.5873084528371871,-0.24731365166682323,1.316825942105392]},{"weights":[-0.3761994767355258,3.9666000953076166,-0.05345704125915798,0.16284161550177975,0.08864394545475851,-1.4857465657622348]},{"weights":[1.3205215092243687,0.03955445919819627,0.7024249512041945,0.4492833252436719,-0.22387192870989714,-0.9919677024800997]},{"weights":[-1.1654205440290064,0.05925312792862851,-0.17265978093072043,-0.291621143333949,-0.7520678351968825,1.5557727023643333]},{"weights":[-2.4259756208060654,0.1581140179669346,-1.169769470558386,0.9586840379724507,-0.9007025908175601,1.552484254850616]}]},{"neurons":[{"weights":[0.5101058781329156,0.29856982230990126,-1.7304786291261494,1.4012626429541528,0.5831803996091843,-0.399753367249296,-0.45835247234129084,-1.1556886540931814,-1.3219956600102296]}]}]},{"layersList":[{"neurons":[{"weights":[-0.22165696089237844,2.2226619226434314,-0.04218949684984699,-0.5660885620276325,2.4848208643100627,-0.6775244498526858]},{"weights":[-0.7728519377796049,0.11269338302954757,1.552988212788877,0.37970057656303585,-1.1556248043762187,-1.2456438585643577]},{"weights":[-0.11020016653594937,0.003407844567879653,-3.4355699287055743,0.6391932287148013,-0.8465136738950698,0.8115279130172989]},{"weights":[-0.5975302856074929,-0.3540547621364907,0.9452614959779895,0.6216126929618362,-0.13233330727832637,1.5479677677342558]},{"weights":[-0.5322211466637965,3.7398540728127427,-0.157507078818666,0.15049030675209474,0.10662039241651572,-1.4857465657622348]},{"weights":[1.4324373811556714,0.1297783063195073,0.687056966016302,0.5500289137413216,-0.22387192870989714,-0.960731636382195]},{"weights":[-1.1408332419647562,0.045057555726335644,-0.33933692899847484,-0.4808908173983823,-0.7197422173372422,1.3197968677789038]},{"weights":[-2.38615373635645,0.14007122007966494,-1.2568525686643035,1.002145982873467,-0.8588331195207206,1.630083311020523]}]},{"neurons":[{"weights":[0.28070278633396334,0.3034038906985629,-1.725474535392879,1.2652851525123994,0.5563569331287278,-0.4446091953141026,-0.5167585784895692,-1.1715003248707008,-1.291861300141262]}]}]},{"layersList":[{"neurons":[{"weights":[-0.14084889807870452,2.2990139348246372,-0.11931942912800347,-0.49433688658618735,2.547021033042785,-0.6143871275184889]},{"weights":[-0.7714037222246152,0.0483874639273293,1.603410816939733,0.3835963630194744,-1.1539436060032846,-1.3593747952327124]},{"weights":[-0.08355865135286339,-0.02045222392590918,-3.364944119745906,0.6899642619818,-0.599731371594111,0.8115279130172989]},{"weights":[-0.9248741329570673,-0.3540547621364907,0.8461514302947588,0.3945030443810077,-0.19400215075969304,1.5479677677342558]},{"weights":[-0.3761994767355258,4.181477334480137,-0.054578752971494726,0.12238560325179179,-0.005416991569713148,-1.7536219421837065]},{"weights":[1.8122548484796672,0.22487762323082533,0.8023795902106505,0.5455793820621826,-0.06972938378532434,-1.0054279483642234]},{"weights":[-1.1408332419647562,0.05925312792862851,-0.14263485992828903,-0.4322876968833546,-0.7197422173372422,1.3719817011012767]},{"weights":[-2.4259756208060654,0.1500342274067171,-1.2122735308553965,1.0421620435861612,-0.819948317612396,1.6557133887095552]}]},{"neurons":[{"weights":[0.3083739023050871,0.5255523572293193,-1.8485656151423835,1.2186428814229147,0.4922509466657954,-0.49987698389052937,-0.6765894730360799,-1.1556886540931814,-1.3792289376015514]}]}]},{"layersList":[{"neurons":[{"weights":[-0.12438999896068885,2.20215134810822,-0.11931942912800347,-0.5048108777643204,2.4650820489978775,-0.5809176117874189]},{"weights":[-0.7714037222246152,-0.09699769325588548,1.552988212788877,0.37970057656303585,-0.818528579030336,-1.3593747952327124]},{"weights":[-0.08866194352471603,0.003407844567879653,-3.260312726950208,0.6030549396836165,-0.9568630462018988,0.741520381251948]},{"weights":[-1.045395221319405,-0.3540547621364907,1.1336740465931003,0.4223946411129129,-0.09678225738291,1.5479677677342558]},{"weights":[-0.5788842298724307,4.082483990171241,-0.08450392772549098,0.32049264515526926,0.32457217765410623,-1.5033377420700047]},{"weights":[1.801921290159268,0.22487762323082533,0.6808210860097066,0.5364155390831119,-0.35509136119327994,-0.9155702738759302]},{"weights":[-1.1790832887357576,0.04814109123978959,-0.10360682478774658,-0.3887970402773336,-0.7197422173372422,1.6525341555546793]},{"weights":[-2.38615373635645,0.14007122007966494,-1.1216609547290537,0.9439733915302887,-0.7894339232213066,1.7378587223949333]}]},{"neurons":[{"weights":[0.43885105068752167,0.4410791535691853,-1.727224577638517,1.2652851525123994,0.5563569331287278,-0.399753367249296,-0.6765894730360799,-1.1349765798788047,-1.3864149599013462]}]}]},{"layersList":[{"neurons":[{"weights":[-0.1455825826022769,2.2990139348246372,0.12276060390755622,-0.5531676815982498,2.4835638554654587,-0.6194532952050368]},{"weights":[-0.6277303341790055,0.04237813880004284,1.600868771244251,0.20323154025505968,-0.8808026043042445,-1.5244064733057912]},{"weights":[-0.027200649089794103,-0.023401756131187387,-3.2540731682639343,0.9801678972936575,-0.6849031763874387,0.6143856833104485]},{"weights":[-1.0319766499124916,-0.12278575980293241,1.1160421498902875,0.5873084528371871,-0.1764375342809027,1.4276182167095963]},{"weights":[-0.4977918595289868,4.004217912133144,-0.17186472222226695,0.16284161550177975,0.08569440236363461,-1.6548564063912903]},{"weights":[1.3660782210874716,0.1297783063195073,0.8935586781914553,0.28657827478497355,-0.15183326427031324,-0.9919677024800997]},{"weights":[-1.2735306828621202,-0.039614419995094734,-0.14263485992828903,-0.44864515172749486,-0.7611904774171147,1.3197968677789038]},{"weights":[-2.1930001797909697,0.1500342274067171,-1.2000500161955638,0.9251942901187794,-0.8662283851434287,1.5941653748423736]}]},{"neurons":[{"weights":[0.5101058781329156,0.4410791535691853,-1.7304786291261494,1.343421561098151,0.3742185651718809,-0.4131244024777543,-0.5175456661006355,-1.1556886540931814,-1.3864149599013462]}]}]},{"layersList":[{"neurons":[{"weights":[-0.03530855825668437,2.2990139348246372,-0.11931942912800347,-0.6515345967586819,2.4848208643100627,-0.5674146528457052]},{"weights":[-0.7714037222246152,0.04237813880004284,1.571588266898293,0.37970057656303585,-0.8115624431656203,-1.3593747952327124]},{"weights":[-0.11020016653594937,0.0016278483964081657,-3.475583800399364,0.9801678972936575,-0.7968697009606536,0.8115279130172989]},{"weights":[-1.0319766499124916,-0.08370120166716727,1.1419644834041502,0.3972319128399419,-0.09678225738291,1.4456904246377666]},{"weights":[-0.42619413921627963,3.7398540728127427,-0.12441060701975101,0.32049264515526926,0.1726671497799448,-1.7536219421837065]},{"weights":[1.4121180588293294,-0.0532644375737415,0.7633906796511775,0.4492833252436719,-0.07008298927038009,-0.9919677024800997]},{"weights":[-1.213916365430968,-0.05044965372184339,-0.14263485992828903,-0.4666358163366199,-0.7197422173372422,1.2608189137942258]},{"weights":[-2.38615373635645,0.14007122007966494,-1.2122735308553965,0.9374005187015603,-0.9007025908175601,1.5321574010306478]}]},{"neurons":[{"weights":[0.4251960840322512,0.45330809748771933,-1.80448385350953,1.5044399054149553,0.4922509466657954,-0.5155390919624128,-0.5840175204081297,-1.1556886540931814,-1.3864149599013462]}]}]},{"layersList":[{"neurons":[{"weights":[-0.1341764675378945,2.20215134810822,-0.11931942912800347,-0.6686979316764001,2.5260907759685027,-0.6534949543208682]},{"weights":[-1.1733712693500844,0.13928801672495902,1.3880325834991716,0.2886425870543966,-1.1446544625736055,-1.5244064733057912]},{"weights":[-0.11020016653594937,0.028475819155507273,-3.387098144113781,0.6306450055881099,-0.9568630462018988,0.5976515239210409]},{"weights":[-1.0319766499124916,-0.3945212888634262,0.9699290375064112,0.3906843700270682,-0.15149032559168768,1.4695801118072942]},{"weights":[-0.4863213436074465,3.843181064477309,-0.12441060701975101,0.12238560325179179,0.10662039241651572,-1.7536219421837065]},{"weights":[1.4121180588293294,0.1297783063195073,0.687056966016302,0.5455793820621826,-0.17786321614777661,-0.9726137107835279]},{"weights":[-1.2451600191805166,-0.034431221194585054,-0.33933692899847484,-0.4322876968833546,-0.7785663675228742,1.3197968677789038]},{"weights":[-2.4259756208060654,0.11496977974641218,-1.169769470558386,1.002145982873467,-0.8479968128876569,1.512179140475486]}]},{"neurons":[{"weights":[0.31321833361294554,0.5616343319108292,-1.725474535392879,1.4032905881330506,0.4514318649559258,-0.578926657136041,-0.4542838968321634,-1.0756087604402425,-1.3792289376015514]}]}]},{"layersList":[{"neurons":[{"weights":[0.0742916479439922,2.2990139348246372,-0.04218949684984699,-0.49433688658618735,2.3684824331761507,-0.6658797135194606]},{"weights":[-0.6694782318217736,0.04237813880004284,1.552988212788877,0.17046611146148724,-0.8808026043042445,-1.4717142284932987]},{"weights":[-0.0027231847031694845,-0.029581771621717785,-3.331923173839089,0.6899642619818,-0.7661164797908414,0.6143856833104485]},{"weights":[-0.653994703575758,-0.3540547621364907,1.1160421498902875,0.5017831476310523,-0.11018357633100943,1.5243331486572693]},{"weights":[-0.41880467415671907,3.936363829216848,-0.15182445632650182,0.3352090748103407,-0.005416991569713148,-1.6548564063912903]},{"weights":[1.4324373811556714,0.1297783063195073,0.8935586781914553,0.4492833252436719,-0.4904899115045908,-1.0054279483642234]},{"weights":[-1.0583430715166307,-0.04894564273977074,-0.31183555647346156,-0.4322876968833546,-0.7785663675228742,1.6578841068141492]},{"weights":[-2.211806634264733,0.14007122007966494,-1.2000500161955638,1.0817880252442302,-0.8588331195207206,1.5606004801232847]}]},{"neurons":[{"weights":[0.3083739023050871,0.27605688675630347,-1.8612591782289838,1.343421561098151,0.4623643872924136,-0.4131244024777543,-0.5379073572131274,-1.1556886540931814,-1.364843182321247]}]}]},{"layersList":[{"neurons":[{"weights":[-0.03530855825668437,2.2990139348246372,-0.11931942912800347,-0.49433688658618735,2.4848208643100627,-0.6143871275184889]},{"weights":[-1.1733712693500844,0.04237813880004284,1.3880325834991716,0.4815769095440151,-0.8115624431656203,-1.3593747952327124]},{"weights":[-0.11020016653594937,0.0016278483964081657,-3.167617907210349,0.9801678972936575,-0.8249092629109237,0.7560396926467423]},{"weights":[-1.0319766499124916,-0.08370120166716727,1.1419644834041502,0.3906843700270682,-0.15149032559168768,1.4695801118072942]},{"weights":[-0.4863213436074465,3.7398540728127427,-0.13928514797742886,0.32049264515526926,0.10662039241651572,-1.7536219421837065]},{"weights":[1.801921290159268,-0.0532644375737415,0.7633906796511775,0.4492833252436719,-0.22387192870989714,-1.0054279483642234]},{"weights":[-1.213916365430968,0.045057555726335644,-0.14263485992828903,-0.4322876968833546,-0.7785663675228742,1.3197968677789038]},{"weights":[-2.38615373635645,0.14007122007966494,-1.2122735308553965,0.9374005187015603,-0.9007025908175601,1.5321574010306478]}]},{"neurons":[{"weights":[0.43885105068752167,0.37913759857778634,-1.8485656151423835,1.5044399054149553,0.43756640892543497,-0.5155390919624128,-0.5840175204081297,-1.1556886540931814,-1.3792289376015514]}]}]},{"layersList":[{"neurons":[{"weights":[-0.05996561973093213,2.20215134810822,-0.11931942912800347,-0.49433688658618735,2.45004947443596,-0.6658797135194606]},{"weights":[-0.7714037222246152,-0.02769322983090415,1.552988212788877,0.17046611146148724,-0.8115624431656203,-1.3593747952327124]},{"weights":[-0.16158436646472246,0.012449923831164916,-3.260312726950208,1.1633678820908766,-0.7068687124363302,1.0022879649405025]},{"weights":[-1.123454969073046,-0.3540547621364907,1.0524480120517086,0.45661314705373063,-0.08358945109574939,1.4073468321114249]},{"weights":[-0.37332587111408033,3.7398540728127427,-0.09068210161024803,0.3629545745114783,0.32457217765410623,-1.5033377420700047]},{"weights":[1.4324373811556714,0.22487762323082533,0.7633906796511775,0.4492833252436719,-0.45275953811512326,-1.0691360217047396]},{"weights":[-1.0583430715166307,0.045057555726335644,-0.17265978093072043,-0.4100598050571423,-0.826061789334655,1.3197968677789038]},{"weights":[-2.38615373635645,0.14007122007966494,-1.2122735308553965,0.9458683403329565,-0.8588331195207206,1.7378587223949333]}]},{"neurons":[{"weights":[0.43885105068752167,0.4410791535691853,-1.725474535392879,1.2652851525123994,0.5090772619498752,-0.5155390919624128,-0.5379073572131274,-1.1556886540931814,-1.364843182321247]}]}]},{"layersList":[{"neurons":[{"weights":[-0.17469633960605124,2.20215134810822,-0.11931942912800347,-0.49433688658618735,2.5676704091936577,-0.6143871275184889]},{"weights":[-0.754238662044804,-0.02769322983090415,1.552988212788877,0.37970057656303585,-0.9160162208860123,-1.3593747952327124]},{"weights":[-0.2082459822223378,0.003407844567879653,-3.260312726950208,0.572011417466798,-0.7068687124363302,0.8738337959953817]},{"weights":[-1.045395221319405,-0.2836000347761395,1.0524480120517086,0.4766578379783209,-0.09678225738291,1.280639891332175]},{"weights":[-0.37332587111408033,3.7421289330599765,-0.09068210161024803,0.28010738381940786,0.32457217765410623,-1.4723296232927452]},{"weights":[1.801921290159268,0.22487762323082533,0.6808210860097066,0.4492833252436719,-0.12036828187404956,-0.9155702738759302]},{"weights":[-1.1408332419647562,0.07463160380138305,-0.17265978093072043,-0.4714708080172449,-0.7197422173372422,1.3197968677789038]},{"weights":[-2.4259756208060654,0.14007122007966494,-1.2122735308553965,0.9890336934962265,-0.8906617707151694,1.552484254850616]}]},{"neurons":[{"weights":[0.43885105068752167,0.27605688675630347,-1.725474535392879,1.2652851525123994,0.5563569331287278,-0.5155390919624128,-0.45835247234129084,-1.1653066329441362,-1.3219956600102296]}]}]},{"layersList":[{"neurons":[{"weights":[-0.12438999896068885,2.1579484120381274,-0.09079469212798595,-0.5048108777643204,2.45004947443596,-0.6143871275184889]},{"weights":[-0.7608955630720864,0.09907026571188848,1.494028588335804,0.20323154025505968,-1.1539436060032846,-1.5244064733057912]},{"weights":[-0.08866194352471603,0.0016278483964081657,-3.3875034054746407,0.6030549396836165,-0.599731371594111,0.6665566673139338]},{"weights":[-0.5975302856074929,-0.09480413917039282,0.9943291115513333,0.46098191255725973,-0.02783655725558172,1.349975158855148]},{"weights":[-0.5788842298724307,3.8452379198739206,-0.11232997713182255,0.1482021104484943,0.04933331880004302,-1.3369750149532538]},{"weights":[1.4324373811556714,-0.0532644375737415,0.8935586781914553,0.5011714209390694,-0.35509136119327994,-0.9726137107835279]},{"weights":[-1.178293295713293,0.12818943632874275,-0.26229258076035367,-0.46869322442591205,-0.8002936509555418,1.3719817011012767]},{"weights":[-2.327683506555313,0.08858937007350676,-1.1216609547290537,0.9439733915302887,-0.7894339232213066,1.512179140475486]}]},{"neurons":[{"weights":[0.567549682865995,0.33077312411863535,-1.7516454616171502,1.520759886904961,0.37932884496201424,-0.392030007904762,-0.5167585784895692,-1.1959199978466524,-1.291861300141262]}]}]},{"layersList":[{"neurons":[{"weights":[-0.1455825826022769,2.3077293867951365,-0.09079469212798595,-0.5531676815982498,2.4835638554654587,-0.6194532952050368]},{"weights":[-0.7714037222246152,-0.02769322983090415,1.6281688215054302,0.18878962919139994,-1.1539436060032846,-1.3593747952327124]},{"weights":[-0.16158436646472246,-0.023401756131187387,-3.2540731682639343,1.19108398224987,-0.7661164797908414,0.6143856833104485]},{"weights":[-0.6468396245292255,-0.3540547621364907,1.1160421498902875,0.522560951222426,-0.11018357633100943,1.5479677677342558]},{"weights":[-0.4977918595289868,3.7398540728127427,-0.15182445632650182,0.15049030675209474,-0.005416991569713148,-1.5033377420700047]},{"weights":[1.2753441570158983,0.1297783063195073,0.8935586781914553,0.4492833252436719,-0.4904899115045908,-0.8757299492820436]},{"weights":[-1.2735306828621202,0.045057555726335644,-0.26229258076035367,-0.4666358163366199,-0.7785663675228742,1.3197968677789038]},{"weights":[-2.1930001797909697,0.14007122007966494,-1.2000500161955638,1.0817880252442302,-0.8588331195207206,1.552484254850616]}]},{"neurons":[{"weights":[0.43885105068752167,0.4410791535691853,-1.7516454616171502,1.343421561098151,0.3742185651718809,-0.5108133968132099,-0.5175456661006355,-1.1848364926616821,-1.5222031749097824]}]}]},{"layersList":[{"neurons":[{"weights":[-0.1341764675378945,2.20215134810822,-0.11931942912800347,-0.6515345967586819,2.4848208643100627,-0.6534949543208682]},{"weights":[-0.7714037222246152,-0.07122939284059605,1.552988212788877,0.37970057656303585,-0.8115624431656203,-1.5244064733057912]},{"weights":[-0.11020016653594937,0.028475819155507273,-3.475583800399364,0.6899642619818,-0.7661164797908414,0.8115279130172989]},{"weights":[-0.6130963169765345,-0.08342066399703399,0.9971285499817437,0.47278354365545017,-0.1764375342809027,1.4456904246377666]},{"weights":[-0.4863213436074465,3.9316405916961874,-0.157507078818666,0.2931093436181904,0.10662039241651572,-1.7536219421837065]},{"weights":[1.4121180588293294,0.1297783063195073,0.687056966016302,0.5133998685944976,-0.27615567361810495,-0.960731636382195]},{"weights":[-1.213916365430968,-0.034431221194585054,-0.33933692899847484,-0.4322876968833546,-0.7197422173372422,1.3197968677789038]},{"weights":[-2.44960715012647,0.14007122007966494,-1.3925142983773933,1.002145982873467,-0.8588331195207206,1.7378587223949333]}]},{"neurons":[{"weights":[0.4251960840322512,0.4986839097909215,-1.8485656151423835,1.5044399054149553,0.4922509466657954,-0.43199208207498363,-0.5167585784895692,-1.1556886540931814,-1.3792289376015514]}]}]},{"layersList":[{"neurons":[{"weights":[-0.1341764675378945,2.20215134810822,-0.09079469212798595,-0.6515345967586819,2.4848208643100627,-0.6775244498526858]},{"weights":[-0.7714037222246152,-0.02769322983090415,1.552988212788877,0.37970057656303585,-0.8115624431656203,-1.5244064733057912]},{"weights":[-0.11020016653594937,0.028475819155507273,-3.475583800399364,0.5715140620487369,-0.7661164797908414,0.8115279130172989]},{"weights":[-0.6130963169765345,-0.08342066399703399,1.048286483333298,0.47278354365545017,-0.1764375342809027,1.57714353296114]},{"weights":[-0.4863213436074465,3.9316405916961874,-0.157507078818666,0.23763513113356283,0.10662039241651572,-1.7536219421837065]},{"weights":[1.747144679975564,0.1297783063195073,0.7670920974705076,0.5133998685944976,-0.22387192870989714,-0.8863174036042756]},{"weights":[-1.213916365430968,-0.07492592197143393,-0.33933692899847484,-0.4808908173983823,-0.7197422173372422,1.3197968677789038]},{"weights":[-2.44960715012647,0.14007122007966494,-1.2529108468770018,1.002145982873467,-0.8588331195207206,1.7378587223949333]}]},{"neurons":[{"weights":[0.4251960840322512,0.4986839097909215,-1.6471139313620144,1.5044399054149553,0.5563569331287278,-0.5155390919624128,-0.5167585784895692,-1.1556886540931814,-1.3792289376015514]}]}]},{"layersList":[{"neurons":[{"weights":[-0.19503745313081977,2.447800860483202,-0.052464349048433785,-0.5660885620276325,2.4625140806359562,-0.6422448994044382]},{"weights":[-0.6694782318217736,0.04237813880004284,1.552988212788877,0.17046611146148724,-0.8808026043042445,-1.4717142284932987]},{"weights":[-0.11020016653594937,0.058049798762972935,-3.3829417014821184,0.6899642619818,-0.6849393540835853,0.6143856833104485]},{"weights":[-0.653994703575758,-0.19804800015068683,1.0313497212512053,0.46098191255725973,-0.08913971040694309,1.4864376195607727]},{"weights":[-0.4769633083104912,3.861590621827063,-0.17186472222226695,0.12238560325179179,0.09761642279070973,-1.6548564063912903]},{"weights":[1.3660782210874716,0.1297783063195073,0.8935586781914553,0.3781098505677507,-0.22387192870989714,-1.0054279483642234]},{"weights":[-1.1654205440290064,-0.034431221194585054,-0.31183555647346156,-0.4322876968833546,-0.7785663675228742,1.6578841068141492]},{"weights":[-2.211806634264733,0.08858937007350676,-1.2697758880795058,1.0817880252442302,-0.9007025908175601,1.5606004801232847]}]},{"neurons":[{"weights":[0.3083739023050871,0.4410791535691853,-1.8612591782289838,1.4398899732388877,0.44302571980912153,-0.5155390919624128,-0.6105200388189392,-1.1098263008785128,-1.3869322327152467]}]}]},{"layersList":[{"neurons":[{"weights":[-0.1341764675378945,2.2990139348246372,-0.09079469212798595,-0.6515345967586819,2.5260907759685027,-0.554514330439628]},{"weights":[-1.1733712693500844,-0.02769322983090415,1.552988212788877,0.3835963630194744,-1.1446544625736055,-1.5244064733057912]},{"weights":[-0.08355865135286339,0.028475819155507273,-3.475583800399364,0.6899642619818,-0.7661164797908414,0.5976515239210409]},{"weights":[-0.6442118835481541,-0.11273745297008732,0.9971285499817437,0.47278354365545017,-0.15149032559168768,1.4456904246377666]},{"weights":[-0.5189571351540496,3.843181064477309,-0.12441060701975101,0.12238560325179179,0.10662039241651572,-1.7320339913868184]},{"weights":[1.4121180588293294,0.1297783063195073,0.687056966016302,0.5455793820621826,-0.22387192870989714,-1.0054279483642234]},{"weights":[-1.213916365430968,-0.034431221194585054,-0.33933692899847484,-0.4322876968833546,-0.7785663675228742,1.3197968677789038]},{"weights":[-2.44960715012647,0.14007122007966494,-1.2434956817143124,1.002145982873467,-0.8875544516883435,1.6557133887095552]}]},{"neurons":[{"weights":[0.31321833361294554,0.5616343319108292,-1.8485656151423835,1.5044399054149553,0.4922509466657954,-0.43199208207498363,-0.5167585784895692,-1.0756087604402425,-1.3792289376015514]}]}]},{"layersList":[{"neurons":[{"weights":[-0.03530855825668437,2.1579484120381274,-0.11931942912800347,-0.5531676815982498,2.5299781107266672,-0.6143871275184889]},{"weights":[-0.6694782318217736,-0.014559351079721068,1.5280643471706004,0.17046611146148724,-0.9709744386551934,-1.3593747952327124]},{"weights":[-0.08866194352471603,0.003407844567879653,-3.302413942208979,0.6030549396836165,-0.8054320687626785,0.8115279130172989]},{"weights":[-0.6963221632504687,-0.3540547621364907,0.9628834171389125,0.49869966484618494,-0.24731365166682323,1.4276182167095963]},{"weights":[-0.6327311398362715,3.861590621827063,-0.0697709906511712,0.16284161550177975,-0.07943366384940195,-1.4722840266824864]},{"weights":[1.3852288717703616,0.031170339419120667,0.6797397695652257,0.5455793820621826,-0.35509136119327994,-0.9919677024800997]},{"weights":[-1.2451600191805166,0.05925312792862851,-0.17265978093072043,-0.291621143333949,-0.7197422173372422,1.5557727023643333]},{"weights":[-2.4259756208060654,0.11496977974641218,-1.2000500161955638,1.002145982873467,-0.9007025908175601,1.6831386982487635]}]},{"neurons":[{"weights":[0.43885105068752167,0.29856982230990126,-1.6884127876837611,1.4398899732388877,0.4514318649559258,-0.5155390919624128,-0.6541776384428893,-1.1028977417078545,-1.3864149599013462]}]}]},{"layersList":[{"neurons":[{"weights":[-0.09639802431481678,2.20215134810822,-0.2030594322182173,-0.49433688658618735,2.5260907759685027,-0.6143871275184889]},{"weights":[-1.162265988388109,0.04237813880004284,1.552988212788877,0.37970057656303585,-0.8115624431656203,-1.2922397087404953]},{"weights":[-0.11020016653594937,0.003407844567879653,-3.387098144113781,0.6899642619818,-0.7661164797908414,0.6775640343944318]},{"weights":[-1.045395221319405,-0.3540547621364907,1.048286483333298,0.47553348362982273,-0.307787633119054,1.5479677677342558]},{"weights":[-0.4769633083104912,3.861590621827063,-0.05869473536381464,0.16284161550177975,0.011876322306135417,-1.7536219421837065]},{"weights":[1.801921290159268,0.22487762323082533,0.8419714545135681,0.4492833252436719,-0.22387192870989714,-1.0048885829821046]},{"weights":[-1.1408332419647562,0.045057555726335644,-0.36631908664915586,-0.5537294626491516,-0.6314102343339185,1.3544201851689404]},{"weights":[-2.38615373635645,0.14007122007966494,-1.1285242178555521,1.0588927976042977,-0.8525419391548884,1.5367177843407762]}]},{"neurons":[{"weights":[0.43885105068752167,0.4410791535691853,-1.8485656151423835,1.343421561098151,0.4922509466657954,-0.5155390919624128,-0.45835247234129084,-1.1556886540931814,-1.3864149599013462]}]}]},{"layersList":[{"neurons":[{"weights":[-0.1341764675378945,2.2990139348246372,-0.11931942912800347,-0.5531676815982498,2.4848208643100627,-0.6534949543208682]},{"weights":[-0.7096080592022612,-0.02769322983090415,1.552988212788877,0.37970057656303585,-1.1539436060032846,-1.5244064733057912]},{"weights":[-0.20235536531155318,-0.03560432757454169,-3.331923173839089,0.6899642619818,-0.7661164797908414,0.8115279130172989]},{"weights":[-0.6468396245292255,-0.19804800015068683,0.9971285499817437,0.5142313001613397,-0.09882672328301423,1.4198928658737755]},{"weights":[-0.49267513118744644,3.843181064477309,-0.12441060701975101,0.06728524131932673,-0.005416991569713148,-1.6548564063912903]},{"weights":[1.4121180588293294,0.1297783063195073,0.6899160063216151,0.5606927792855606,-0.27615567361810495,-0.960731636382195]},{"weights":[-1.213916365430968,0.045057555726335644,-0.0944628185833348,-0.4322876968833546,-0.7785663675228742,1.3197968677789038]},{"weights":[-2.44960715012647,0.17016369758211322,-1.2116334451915876,1.002145982873467,-0.8588331195207206,1.582938943757285]}]},{"neurons":[{"weights":[0.3083739023050871,0.45330809748771933,-1.8612591782289838,1.5044399054149553,0.5212426988218447,-0.399753367249296,-0.5167585784895692,-1.2029565410650322,-1.3874363354377353]}]}]},{"layersList":[{"neurons":[{"weights":[-0.1310098854264636,2.1579484120381274,0.12276060390755622,-0.5531676815982498,2.5260907759685027,-0.6658797135194606]},{"weights":[-0.6694782318217736,0.07384369381251084,1.571588266898293,0.17046611146148724,-0.8808026043042445,-1.5211757636201833]},{"weights":[-0.029038240415290267,0.0016278483964081657,-3.302413942208979,0.524332668166149,-0.8054320687626785,0.9084594658220669]},{"weights":[-0.9828765641419184,-0.4010263126845003,0.9699290375064112,0.5967811848568849,-0.16151332436273813,1.4276182167095963]},{"weights":[-0.3761994767355258,4.08583849505656,-0.103968599976764,0.16284161550177975,0.32457217765410623,-1.4723296232927452]},{"weights":[1.3660782210874716,0.031170339419120667,0.7024249512041945,0.4573754971282847,-0.15183326427031324,-0.9919677024800997]},{"weights":[-1.1654205440290064,0.05925312792862851,-0.26733933307501984,-0.291621143333949,-0.7785663675228742,1.5557727023643333]},{"weights":[-2.25814136277994,0.08858937007350676,-1.2697758880795058,0.8855230789139388,-0.9007025908175601,1.5941653748423736]}]},{"neurons":[{"weights":[0.5101058781329156,0.3485327046053518,-1.7304786291261494,1.2652851525123994,0.516967198817022,-0.399753367249296,-0.5135181989515724,-1.1556886540931814,-1.3864149599013462]}]}]},{"layersList":[{"neurons":[{"weights":[-0.1341764675378945,2.0856711580126017,-0.2030594322182173,-0.49433688658618735,2.4848208643100627,-0.6046920126225709]},{"weights":[-0.7608955630720864,0.04237813880004284,1.3880325834991716,0.37970057656303585,-0.8115624431656203,-1.6015082366427582]},{"weights":[-0.15232658248307446,0.003407844567879653,-3.260312726950208,0.7048085812454818,-0.5455609623547412,0.8788854818914592]},{"weights":[-0.9660698215616496,-0.3540547621364907,0.9928856549633981,0.47278354365545017,-0.15149032559168768,1.5479677677342558]},{"weights":[-0.49719673825108196,3.819243595948139,-0.157507078818666,0.3541138357794707,0.32457217765410623,-1.7536219421837065]},{"weights":[1.437175088430287,0.1297783063195073,0.7347052066762434,0.6449638434978524,-0.22387192870989714,-1.0054279483642234]},{"weights":[-1.1408332419647562,-0.034431221194585054,-0.33933692899847484,-0.4100598050571423,-0.7785663675228742,1.3197968677789038]},{"weights":[-2.5004339790977896,0.14007122007966494,-1.1716131829933312,0.9439733915302887,-0.8525419391548884,1.552484254850616]}]},{"neurons":[{"weights":[0.31321833361294554,0.5616343319108292,-1.725474535392879,1.5044399054149553,0.5563569331287278,-0.5155390919624128,-0.45835247234129084,-1.1556886540931814,-1.3864149599013462]}]}]},{"layersList":[{"neurons":[{"weights":[-0.14084889807870452,2.2990139348246372,-0.11931942912800347,-0.49433688658618735,2.5316206877777785,-0.6534949543208682]},{"weights":[-0.7714037222246152,0.07736090237730395,1.603410816939733,0.3835963630194744,-1.1556248043762187,-1.2642028199619344]},{"weights":[-0.08355865135286339,0.003407844567879653,-3.189419542020939,0.6899642619818,-0.7661164797908414,0.5837003068024311]},{"weights":[-0.9248741329570673,-0.11273745297008732,0.9452614959779895,0.5142313001613397,-0.19400215075969304,1.5479677677342558]},{"weights":[-0.4863213436074465,3.7398540728127427,-0.12441060701975101,0.12238560325179179,-0.005416991569713148,-1.7536219421837065]},{"weights":[1.4324373811556714,0.22487762323082533,0.8023795902106505,0.5455793820621826,-0.22387192870989714,-0.9486658860130242]},{"weights":[-1.213916365430968,0.045057555726335644,-0.33933692899847484,-0.4322876968833546,-0.7197422173372422,1.3197968677789038]},{"weights":[-2.44960715012647,0.1500342274067171,-1.2122735308553965,1.002145982873467,-0.819948317612396,1.6557133887095552]}]},{"neurons":[{"weights":[0.3593837219814287,0.5255523572293193,-1.8485656151423835,1.2652851525123994,0.4922509466657954,-0.5233856119757807,-0.5167585784895692,-1.1556886540931814,-1.3792289376015514]}]}]},{"layersList":[{"neurons":[{"weights":[-0.1310098854264636,2.0856711580126017,-0.07652417590448916,-0.5660885620276325,2.5260907759685027,-0.6143871275184889]},{"weights":[-0.8718715883836293,0.07384369381251084,1.571588266898293,0.17046611146148724,-1.1303420735402903,-1.5211757636201833]},{"weights":[-0.029038240415290267,0.0016278483964081657,-3.387098144113781,0.9801678972936575,-0.774020367099513,0.9084594658220669]},{"weights":[-1.0319766499124916,-0.2898661707330107,0.9628834171389125,0.5873084528371871,-0.24731365166682323,1.4496464591054374]},{"weights":[-0.3761994767355258,4.08583849505656,-0.103968599976764,0.16284161550177975,0.08864394545475851,-1.4722840266824864]},{"weights":[1.3205215092243687,0.1297783063195073,0.7024249512041945,0.5455793820621826,-0.15183326427031324,-0.9919677024800997]},{"weights":[-1.1654205440290064,0.05925312792862851,-0.26733933307501984,-0.48354145901293927,-0.8472038853857738,1.6578841068141492]},{"weights":[-2.25814136277994,0.08858937007350676,-1.2697758880795058,0.8855230789139388,-0.9007025908175601,1.7378587223949333]}]},{"neurons":[{"weights":[0.5101058781329156,0.29856982230990126,-1.763994373254297,1.308046037429731,0.516967198817022,-0.399753367249296,-0.5135181989515724,-1.1556886540931814,-1.3864149599013462]}]}]},{"layersList":[{"neurons":[{"weights":[-0.1341764675378945,2.20215134810822,-0.04218949684984699,-0.6515345967586819,2.45004947443596,-0.6775244498526858]},{"weights":[-0.7714037222246152,-0.02769322983090415,1.6281688215054302,0.17046611146148724,-0.8507539500236077,-1.3593747952327124]},{"weights":[-0.16158436646472246,0.09688774856042318,-3.475583800399364,0.6225460487997267,-0.7661164797908414,0.9084594658220669]},{"weights":[-1.045395221319405,-0.3540547621364907,0.9699290375064112,0.45661314705373063,-0.11018357633100943,1.57714353296114]},{"weights":[-0.5357257531674176,3.7398540728127427,-0.157507078818666,0.32049264515526926,0.32457217765410623,-1.5033377420700047]},{"weights":[1.4324373811556714,0.031170339419120667,0.687056966016302,0.5133998685944976,-0.4904899115045908,-1.0691360217047396]},{"weights":[-1.0583430715166307,-0.034431221194585054,-0.17265978093072043,-0.4666358163366199,-0.826061789334655,1.3197968677789038]},{"weights":[-2.4635432816655767,0.14007122007966494,-1.2000500161955638,0.885557808583841,-0.8588331195207206,1.7378587223949333]}]},{"neurons":[{"weights":[0.43885105068752167,0.27605688675630347,-1.725474535392879,1.5044399054149553,0.4623643872924136,-0.5155390919624128,-0.5167585784895692,-1.1556886540931814,-1.364843182321247]}]}]},{"layersList":[{"neurons":[{"weights":[-0.03530855825668437,2.0856711580126017,-0.11931942912800347,-0.4146963856572588,2.4650820489978775,-0.6658797135194606]},{"weights":[-0.7608955630720864,0.04237813880004284,1.6479958877091119,0.37970057656303585,-1.1373395806152264,-1.3593747952327124]},{"weights":[-0.15232658248307446,0.003407844567879653,-3.260312726950208,1.1272459492888922,-0.7068687124363302,0.741520381251948]},{"weights":[-1.045395221319405,-0.19643414897538286,0.9452614959779895,0.4766578379783209,-0.22112357308842331,1.292897559453232]},{"weights":[-0.4769633083104912,3.7421289330599765,-0.15182445632650182,0.28010738381940786,0.32457217765410623,-1.5033377420700047]},{"weights":[1.437175088430287,0.14480304748959152,0.7633906796511775,0.4492833252436719,-0.27615567361810495,-1.0191875529527856]},{"weights":[-1.1408332419647562,0.07463160380138305,-0.17265978093072043,-0.4100598050571423,-0.739067699602035,1.5557727023643333]},{"weights":[-2.4259756208060654,0.0756106907860435,-1.2122735308553965,0.9439733915302887,-0.8525419391548884,1.552484254850616]}]},{"neurons":[{"weights":[0.43885105068752167,0.4410791535691853,-1.725474535392879,1.2652851525123994,0.4623643872924136,-0.5155390919624128,-0.6765894730360799,-1.1349765798788047,-1.3219956600102296]}]}]},{"layersList":[{"neurons":[{"weights":[-0.1341764675378945,2.2990139348246372,-0.09079469212798595,-0.5531676815982498,2.4835638554654587,-0.6194532952050368]},{"weights":[-0.7608955630720864,-0.02769322983090415,1.600868771244251,0.37970057656303585,-0.8115624431656203,-1.5244064733057912]},{"weights":[-0.11020016653594937,-0.023401756131187387,-3.475583800399364,0.5715140620487369,-0.6688422513168064,0.8115279130172989]},{"weights":[-0.6130963169765345,-0.08342066399703399,1.048286483333298,0.522560951222426,-0.1764375342809027,1.57714353296114]},{"weights":[-0.4863213436074465,3.9316405916961874,-0.157507078818666,0.15049030675209474,0.10662039241651572,-1.6620309962389692]},{"weights":[1.2753441570158983,0.1297783063195073,0.687056966016302,0.5133998685944976,-0.22387192870989714,-0.960731636382195]},{"weights":[-1.213916365430968,-0.034431221194585054,-0.33933692899847484,-0.4226244824055258,-0.720724338412149,1.3197968677789038]},{"weights":[-2.44960715012647,0.14007122007966494,-1.2000500161955638,1.002145982873467,-0.8662283851434287,1.7378587223949333]}]},{"neurons":[{"weights":[0.4251960840322512,0.4986839097909215,-1.725474535392879,1.5044399054149553,0.5563569331287278,-0.5155390919624128,-0.5175456661006355,-1.0710532966398,-1.3792289376015514]}]}]},{"layersList":[{"neurons":[{"weights":[-0.17469633960605124,2.0856711580126017,-0.2030594322182173,-0.4146963856572588,2.5676704091936577,-0.6553020070016478]},{"weights":[-1.162265988388109,0.04237813880004284,1.6281688215054302,0.2584947943319371,-1.1373395806152264,-1.3593747952327124]},{"weights":[-0.15232658248307446,0.003407844567879653,-3.489664787419023,0.5384385379921302,-0.5094468137706372,0.9409620065484663]},{"weights":[-0.9828765641419184,-0.19643414897538286,0.9699290375064112,0.5142313001613397,-0.17702122120459668,1.5479677677342558]},{"weights":[-0.4769633083104912,3.861590621827063,-0.15182445632650182,0.28010738381940786,0.10662039241651572,-1.5095735742286964]},{"weights":[1.437175088430287,0.22487762323082533,0.7633906796511775,0.3571250427907142,-0.15183326427031324,-1.0191875529527856]},{"weights":[-1.1408332419647562,0.07463160380138305,-0.26733933307501984,-0.4714708080172449,-0.739067699602035,1.5557727023643333]},{"weights":[-2.38615373635645,0.14007122007966494,-1.2000500161955638,1.002145982873467,-0.8875544516883435,1.552484254850616]}]},{"neurons":[{"weights":[0.5272825760092378,0.27605688675630347,-1.763994373254297,1.343421561098151,0.4377447542766807,-0.5446643823353755,-0.45835247234129084,-1.1653066329441362,-1.3864149599013462]}]}]},{"layersList":[{"neurons":[{"weights":[-0.03530855825668437,2.191468810328311,-0.11931942912800347,-0.4146963856572588,2.4848208643100627,-0.6751410650337785]},{"weights":[-0.7714037222246152,-0.13381797519190716,1.552988212788877,0.17046611146148724,-1.0013727929503233,-1.3826515992141728]},{"weights":[-0.027200649089794103,0.041956061322624146,-3.260312726950208,1.077811836878595,-0.7661164797908414,0.7582628557626446]},{"weights":[-1.045395221319405,-0.3540547621364907,1.0524480120517086,0.5221905037813959,-0.27931078382603164,1.5479677677342558]},{"weights":[-0.3761994767355258,3.6714289522015435,-0.07422280135480197,0.21344727440552913,0.32457217765410623,-1.4003936557161438]},{"weights":[1.4324373811556714,0.031170339419120667,0.5794676397223197,0.4492833252436719,-0.2562451333865774,-1.0691360217047396]},{"weights":[-1.2451600191805166,0.10250446840229896,-0.142832944556945,-0.38610416119048124,-0.7197422173372422,1.3197968677789038]},{"weights":[-2.38615373635645,0.0756106907860435,-1.3528390520756308,0.791982892826731,-0.8906617707151694,1.7378587223949333]}]},{"neurons":[{"weights":[0.2535434355928917,0.28322009073793486,-1.725474535392879,1.2652851525123994,0.6267883387475226,-0.2445024084911866,-0.5175456661006355,-1.1653066329441362,-1.4728490538333414]}]}]},{"layersList":[{"neurons":[{"weights":[-0.14084889807870452,2.2990139348246372,-0.11931942912800347,-0.6605276624087009,2.4848208643100627,-0.6985077312126542]},{"weights":[-0.7714037222246152,-0.02769322983090415,1.603410816939733,0.37970057656303585,-1.1469499449395404,-1.2642028199619344]},{"weights":[-0.08355865135286339,0.003407844567879653,-3.475583800399364,0.6899642619818,-0.7661164797908414,0.8115279130172989]},{"weights":[-0.5249561913458833,-0.08342066399703399,0.9971285499817437,0.5142313001613397,-0.1764375342809027,1.4456904246377666]},{"weights":[-0.5189571351540496,3.843181064477309,-0.12441060701975101,0.12238560325179179,-0.005416991569713148,-1.6600218251562229]},{"weights":[1.4980360790867921,0.1297783063195073,0.687056966016302,0.5606927792855606,-0.27615567361810495,-1.0054279483642234]},{"weights":[-1.213916365430968,0.045057555726335644,-0.33933692899847484,-0.4322876968833546,-0.7785663675228742,1.3197968677789038]},{"weights":[-2.44960715012647,0.14007122007966494,-1.2931317699396085,1.002145982873467,-0.8588331195207206,1.6557133887095552]}]},{"neurons":[{"weights":[0.3593837219814287,0.45330809748771933,-1.8485656151423835,1.2888113991877088,0.4922509466657954,-0.43199208207498363,-0.5167585784895692,-1.1556886540931814,-1.3792289376015514]}]}]},{"layersList":[{"neurons":[{"weights":[-0.03530855825668437,2.1579484120381274,0.091587672283473,-0.3513102407827765,2.4848208643100627,-0.6143871275184889]},{"weights":[-0.6694782318217736,0.04237813880004284,1.5573570408018553,0.37970057656303585,-0.8808026043042445,-1.3593747952327124]},{"weights":[-0.11020016653594937,0.0016278483964081657,-3.331923173839089,0.9801678972936575,-0.7661164797908414,0.8115279130172989]},{"weights":[-0.9832282014857955,-0.08370120166716727,1.1160421498902875,0.5017831476310523,-0.09678225738291,1.5243331486572693]},{"weights":[-0.41880467415671907,3.7398540728127427,-0.17186472222226695,0.32049264515526926,0.09761642279070973,-1.5033377420700047]},{"weights":[1.4668778868662091,-0.0532644375737415,0.7633906796511775,0.4492833252436719,-0.22387192870989714,-0.9008182002872539]},{"weights":[-1.213916365430968,0.045057555726335644,-0.14263485992828903,-0.4666358163366199,-0.7197422173372422,1.3573236968497797]},{"weights":[-2.38615373635645,0.08858937007350676,-1.2122735308553965,0.9374005187015603,-0.7894339232213066,1.5606004801232847]}]},{"neurons":[{"weights":[0.3083739023050871,0.4410791535691853,-1.8612591782289838,1.5044399054149553,0.5354366209401712,-0.4131244024777543,-0.5840175204081297,-1.1556886540931814,-1.3864149599013462]}]}]},{"layersList":[{"neurons":[{"weights":[-0.1310098854264636,2.1579484120381274,0.12276060390755622,-0.5631337860171909,2.500985824443892,-0.6420892127742663]},{"weights":[-1.1468968684527252,-0.07684383188934613,1.571588266898293,0.17046611146148724,-0.8808026043042445,-1.3593747952327124]},{"weights":[-0.11020016653594937,-0.029007586666155293,-3.387098144113781,0.6144354299887401,-0.762028174123482,0.6606801417424949]},{"weights":[-0.7830146188492186,-0.3540547621364907,0.8598430215926766,0.49869966484618494,-0.07725462840914317,1.4800455625879891]},{"weights":[-0.3761994767355258,4.08583849505656,-0.0697709906511712,0.16284161550177975,0.08864394545475851,-1.5600326820840147]},{"weights":[1.4324373811556714,0.20402712616063995,0.8419714545135681,0.4573754971282847,-0.15183326427031324,-1.0048885829821046]},{"weights":[-1.2451600191805166,0.05925312792862851,-0.26733933307501984,-0.2912803379847643,-0.7197422173372422,1.5557727023643333]},{"weights":[-2.4259756208060654,0.044468104224172675,-1.2391479046311682,0.791982892826731,-0.9007025908175601,1.4823123552132527]}]},{"neurons":[{"weights":[0.5101058781329156,0.4410791535691853,-1.7304786291261494,1.4012626429541528,0.4514318649559258,-0.2445024084911866,-0.5135181989515724,-1.134219223285719,-1.3864149599013462]}]}]},{"layersList":[{"neurons":[{"weights":[-0.17469633960605124,2.447800860483202,-0.1976169232911111,-0.5660885620276325,2.45004947443596,-0.7057961567947998]},{"weights":[-0.671608991913762,-0.02769322983090415,1.6582440858533725,0.1076520137977272,-0.9603409817301127,-1.3945916978303308]},{"weights":[-0.08355865135286339,0.003407844567879653,-3.4039716470621753,1.1272459492888922,-0.599731371594111,0.5119559589519601]},{"weights":[-1.0561671550770675,-0.27231045777028673,1.1157881072053324,0.4445398124816977,-0.25427063263267435,1.233785849630264]},{"weights":[-0.4769633083104912,3.9666000953076166,-0.103968599976764,0.18865315761695492,0.10662039241651572,-1.3972763021614003]},{"weights":[1.394488457452207,0.1297783063195073,0.912021314661656,0.3781098505677507,-0.22387192870989714,-1.0159927737440209]},{"weights":[-1.1654205440290064,-0.034431221194585054,-0.31183555647346156,-0.49682424132124603,-0.7520678351968825,1.5557727023643333]},{"weights":[-2.4259756208060654,0.14007122007966494,-1.2250026819868904,0.9890336934962265,-0.7128814750087142,1.6315756475059449]}]},{"neurons":[{"weights":[0.41409037729264087,0.28322009073793486,-1.7304786291261494,1.4398899732388877,0.5831803996091843,-0.49086341949894985,-0.6105200388189392,-1.1556886540931814,-1.3874363354377353]}]}]},{"layersList":[{"neurons":[{"weights":[-0.14084889807870452,2.20215134810822,-0.04152510452706781,-0.49433688658618735,2.5260907759685027,-0.6143871275184889]},{"weights":[-1.3127110875646935,-0.02769322983090415,1.603410816939733,0.3835963630194744,-0.8115624431656203,-1.2642028199619344]},{"weights":[-0.11020016653594937,0.003407844567879653,-3.357417299721855,1.2172873079165363,-0.7661164797908414,0.8115279130172989]},{"weights":[-0.9828765641419184,-0.3540547621364907,0.9028635005887944,0.48724799948844677,-0.19400215075969304,1.4695801118072942]},{"weights":[-0.4863213436074465,3.7398540728127427,-0.15182445632650182,0.12238560325179179,0.10662039241651572,-1.7536219421837065]},{"weights":[1.4324373811556714,0.031170339419120667,0.8210872186425517,0.31890875536126406,-0.22387192870989714,-1.0048885829821046]},{"weights":[-1.2451600191805166,0.045057555726335644,-0.33933692899847484,-0.49338809307135845,-0.7197422173372422,1.3003716435582289]},{"weights":[-2.44960715012647,0.12386682566815725,-1.2250026819868904,0.791982892826731,-0.8875544516883435,1.6831386982487635]}]},{"neurons":[{"weights":[0.3593837219814287,0.28322009073793486,-1.8485656151423835,1.2652851525123994,0.4922509466657954,-0.5331161016236079,-0.5167585784895692,-1.013461567807301,-1.3864149599013462]}]}]},{"layersList":[{"neurons":[{"weights":[-0.1341764675378945,2.3508751896561333,-0.0958314276061121,-0.6515345967586819,2.5260907759685027,-0.6534949543208682]},{"weights":[-0.7608955630720864,0.0483874639273293,1.552988212788877,0.3835963630194744,-1.1539436060032846,-1.449427589071382]},{"weights":[-0.08355865135286339,0.028475819155507273,-3.167617907210349,0.6899642619818,-0.7661164797908414,0.5976515239210409]},{"weights":[-0.70056531087457,-0.3540547621364907,1.1403209024391436,0.3945030443810077,-0.15149032559168768,1.4695801118072942]},{"weights":[-0.3761994767355258,3.843181064477309,-0.054578752971494726,0.12238560325179179,0.10662039241651572,-1.6227601798250069]},{"weights":[1.4121180588293294,0.1297783063195073,0.687056966016302,0.5455793820621826,-0.22387192870989714,-1.0054279483642234]},{"weights":[-1.1408332419647562,-0.034431221194585054,-0.14263485992828903,-0.4322876968833546,-0.7197422173372422,1.3197968677789038]},{"weights":[-2.44960715012647,0.14007122007966494,-1.2434956817143124,1.0421620435861612,-0.8875544516883435,1.6315756475059449]}]},{"neurons":[{"weights":[0.3083739023050871,0.5616343319108292,-1.8485656151423835,1.2186428814229147,0.4922509466657954,-0.5155390919624128,-0.6765894730360799,-1.1580822247169578,-1.3792289376015514]}]}]},{"layersList":[{"neurons":[{"weights":[-0.1341764675378945,2.1144707487896035,-0.12309657954420491,-0.6515345967586819,2.4848208643100627,-0.6534949543208682]},{"weights":[-1.345836615638841,-0.02769322983090415,1.552988212788877,0.37970057656303585,-0.9603409817301127,-1.3149144306309453]},{"weights":[-0.027200649089794103,0.041956061322624146,-3.260312726950208,0.641205982852632,-0.7661164797908414,0.8115279130172989]},{"weights":[-1.045395221319405,-0.19643414897538286,1.0524480120517086,0.47278354365545017,-0.27931078382603164,1.4695801118072942]},{"weights":[-0.3761994767355258,3.843181064477309,-0.12441060701975101,0.21344727440552913,0.32457217765410623,-1.5033377420700047]},{"weights":[1.4324373811556714,0.1297783063195073,0.6046549991706883,0.5606927792855606,-0.27615567361810495,-0.960731636382195]},{"weights":[-1.2451600191805166,0.015456723489882244,-0.26733933307501984,-0.4322876968833546,-0.7197422173372422,1.3197968677789038]},{"weights":[-2.38615373635645,0.14007122007966494,-1.2931317699396085,0.791982892826731,-0.8588331195207206,1.5606004801232847]}]},{"neurons":[{"weights":[0.4251960840322512,0.28322009073793486,-1.725474535392879,1.2652851525123994,0.4922509466657954,-0.2445024084911866,-0.3818086419507947,-1.1556886540931814,-1.2913622767256618]}]}]},{"layersList":[{"neurons":[{"weights":[-0.019307546178762375,2.1579484120381274,-0.2030594322182173,-0.5531676815982498,2.505125985248592,-0.6143871275184889]},{"weights":[-0.6694782318217736,0.12271073837911183,1.571588266898293,0.2102252085928111,-1.1373395806152264,-1.5211757636201833]},{"weights":[-0.027200649089794103,0.06364958942018643,-3.344769271341888,1.1272459492888922,-0.8054320687626785,0.8738337959953817]},{"weights":[-0.9828765641419184,-0.3540547621364907,0.9628834171389125,0.4766578379783209,-0.24731365166682323,1.3667728520551399]},{"weights":[-0.4769633083104912,4.08583849505656,-0.15182445632650182,0.16284161550177975,0.08864394545475851,-1.4723296232927452]},{"weights":[1.437175088430287,0.031170339419120667,0.7633906796511775,0.4573754971282847,-0.15843357714427672,-1.0191875529527856]},{"weights":[-1.1654205440290064,0.05925312792862851,-0.26733933307501984,-0.291621143333949,-0.739067699602035,1.5557727023643333]},{"weights":[-2.4259756208060654,0.08858937007350676,-1.169769470558386,0.9439733915302887,-0.9007025908175601,1.5941653748423736]}]},{"neurons":[{"weights":[0.43885105068752167,0.29856982230990126,-1.763994373254297,1.343421561098151,0.516967198817022,-0.399753367249296,-0.5135181989515724,-1.1556886540931814,-1.3864149599013462]}]}]},{"layersList":[{"neurons":[{"weights":[-0.017086635664094116,2.20215134810822,-0.11931942912800347,-0.49433688658618735,2.4650820489978775,-0.6143871275184889]},{"weights":[-0.7714037222246152,-0.02769322983090415,1.6281688215054302,0.37970057656303585,-0.818528579030336,-1.3593747952327124]},{"weights":[-0.16158436646472246,0.003407844567879653,-3.260312726950208,0.641205982852632,-0.7661164797908414,0.9084594658220669]},{"weights":[-1.0764665432097866,-0.3540547621364907,1.0524480120517086,0.47278354365545017,-0.09678225738291,1.4073468321114249]},{"weights":[-0.37332587111408033,3.7398540728127427,-0.15182445632650182,0.40504433007261487,0.32457217765410623,-1.5161938949306593]},{"weights":[1.8084767474942691,0.21697417701517388,0.6808210860097066,0.4492833252436719,-0.27615567361810495,-1.0691360217047396]},{"weights":[-1.2667150203197024,0.045057555726335644,-0.17265978093072043,-0.4100598050571423,-0.7197422173372422,1.3197968677789038]},{"weights":[-2.38615373635645,0.14007122007966494,-1.2122735308553965,0.9890336934962265,-0.7908362954513822,1.7378587223949333]}]},{"neurons":[{"weights":[0.43885105068752167,0.27605688675630347,-1.7516454616171502,1.3119473393900916,0.5563569331287278,-0.5155390919624128,-0.6765894730360799,-1.1556886540931814,-1.3864149599013462]}]}]}]
